{"learner":{"attributes":{"scikit_learn":"{\"_estimator_type\": \"classifier\"}"},"feature_names":["Age","Number of sexual partners","First sexual intercourse","Num of pregnancies","Smokes","Smokes (years)","Smokes (packs/year)","Hormonal Contraceptives","Hormonal Contraceptives (years)","IUD","IUD (years)","STDs","STDs (number)","STDs:condylomatosis","STDs:cervical condylomatosis","STDs:vaginal condylomatosis","STDs:vulvo-perineal condylomatosis","STDs:syphilis","STDs:pelvic inflammatory disease","STDs:genital herpes","STDs:molluscum contagiosum","STDs:AIDS","STDs:HIV","STDs:Hepatitis B","STDs:HPV","STDs: Number of diagnosis","Dx:CIN","Dx:HPV"],"feature_types":["int","float","float","float","float","float","float","float","float","float","float","float","float","float","float","float","float","float","float","float","float","float","float","float","float","int","int","int"],"gradient_booster":{"model":{"gbtree_model_param":{"num_parallel_tree":"1","num_trees":"100"},"iteration_indptr":[0,1,2,3,4,5,6,7,8,9,10,11,12,13,14,15,16,17,18,19,20,21,22,23,24,25,26,27,28,29,30,31,32,33,34,35,36,37,38,39,40,41,42,43,44,45,46,47,48,49,50,51,52,53,54,55,56,57,58,59,60,61,62,63,64,65,66,67,68,69,70,71,72,73,74,75,76,77,78,79,80,81,82,83,84,85,86,87,88,89,90,91,92,93,94,95,96,97,98,99,100],"tree_info":[0,0,0,0,0,0,0,0,0,0,0,0,0,0,0,0,0,0,0,0,0,0,0,0,0,0,0,0,0,0,0,0,0,0,0,0,0,0,0,0,0,0,0,0,0,0,0,0,0,0,0,0,0,0,0,0,0,0,0,0,0,0,0,0,0,0,0,0,0,0,0,0,0,0,0,0,0,0,0,0,0,0,0,0,0,0,0,0,0,0,0,0,0,0,0,0,0,0,0,0],"trees":[{"base_weights":[-5.853428E-2,-1.1035157E0,9.745811E-1,-4.2399776E-1,2.0981107E0,9.1506404E-1,-3.1830445E-1],"categories":[],"categories_nodes":[],"categories_segments":[],"categories_sizes":[],"default_left":[0,0,0,0,0,0,0],"id":0,"left_children":[1,3,-1,-1,5,-1,-1],"loss_changes":[6.882076E2,1.5302228E2,0E0,0E0,4.4593773E1,0E0,0E0],"parents":[2147483647,0,0,1,1,4,4],"right_children":[2,4,-1,-1,6,-1,-1],"split_conditions":[1E0,7E0,9.745811E-1,-4.2399776E-1,2E0,9.1506404E-1,-3.1830445E-1],"split_indices":[27,10,0,0,3,0,0],"split_type":[0,0,0,0,0,0,0],"sum_hessian":[1.9710269E2,1.5028296E2,4.6819725E1,1.3753294E2,1.2750015E1,9.823782E0,2.9262328E0],"tree_param":{"num_deleted":"0","num_feature":"28","num_nodes":"7","size_leaf_vector":"1"}},{"base_weights":[-1.0793775E-1,-9.700428E-1,5.4669875E-1,-3.7976852E-1,1.2805526E0,5.3782415E-1,-2.8097656E-1],"categories":[],"categories_nodes":[],"categories_segments":[],"categories_sizes":[],"default_left":[0,0,0,0,0,0,0],"id":1,"left_children":[1,3,-1,-1,5,-1,-1],"loss_changes":[3.061201E2,8.623688E1,0E0,0E0,1.90103E1,0E0,0E0],"parents":[2147483647,0,0,1,1,4,4],"right_children":[2,4,-1,-1,6,-1,-1],"split_conditions":[1E0,7E0,5.4669875E-1,-3.7976852E-1,2E0,5.3782415E-1,-2.8097656E-1],"split_indices":[27,10,0,0,3,0,0],"split_type":[0,0,0,0,0,0,0],"sum_hessian":[1.8189386E2,1.26080605E2,5.5813263E1,1.11818954E2,1.4261643E1,1.1740759E1,2.5208845E0],"tree_param":{"num_deleted":"0","num_feature":"28","num_nodes":"7","size_leaf_vector":"1"}},{"base_weights":[-1.0892862E-1,-8.895507E-1,4.3412936E-1,-3.5288385E-1,1.0116261E0,4.260903E-1,-2.521601E-1],"categories":[],"categories_nodes":[],"categories_segments":[],"categories_sizes":[],"default_left":[0,0,0,0,0,0,0],"id":2,"left_children":[1,3,-1,-1,5,-1,-1],"loss_changes":[1.8635602E2,5.6836143E1,0E0,0E0,1.1726823E1,0E0,0E0],"parents":[2147483647,0,0,1,1,4,4],"right_children":[2,4,-1,-1,6,-1,-1],"split_conditions":[1E0,7E0,4.3412936E-1,-3.5288385E-1,2E0,4.260903E-1,-2.521601E-1],"split_indices":[27,10,0,0,3,0,0],"split_type":[0,0,0,0,0,0,0],"sum_hessian":[1.5136151E2,1.0108024E2,5.0281273E1,8.8164825E1,1.2915417E1,1.0771807E1,2.1436095E0],"tree_param":{"num_deleted":"0","num_feature":"28","num_nodes":"7","size_leaf_vector":"1"}},{"base_weights":[-1.05982825E-1,-8.356514E-1,3.7698033E-1,-3.3506364E-1,8.6151165E-1,3.6798173E-1,-2.2841455E-1],"categories":[],"categories_nodes":[],"categories_segments":[],"categories_sizes":[],"default_left":[0,0,0,0,0,0,0],"id":3,"left_children":[1,3,-1,-1,5,-1,-1],"loss_changes":[1.2262835E2,3.9258804E1,0E0,0E0,8.026431E0,0E0,0E0],"parents":[2147483647,0,0,1,1,4,4],"right_children":[2,4,-1,-1,6,-1,-1],"split_conditions":[1E0,7E0,3.7698033E-1,-3.3506364E-1,2E0,3.6798173E-1,-2.2841455E-1],"split_indices":[27,10,0,0,3,0,0],"split_type":[0,0,0,0,0,0,0],"sum_hessian":[1.2128327E2,7.923784E1,4.2045433E1,6.8267525E1,1.0970312E1,9.154954E0,1.8153582E0],"tree_param":{"num_deleted":"0","num_feature":"28","num_nodes":"7","size_leaf_vector":"1"}},{"base_weights":[-1.02486014E-1,-7.962867E-1,3.410425E-1,-3.224233E-1,7.587054E-1,3.3083338E-1,-2.0802762E-1],"categories":[],"categories_nodes":[],"categories_segments":[],"categories_sizes":[],"default_left":[0,0,0,0,0,0,0],"id":4,"left_children":[1,3,-1,-1,5,-1,-1],"loss_changes":[8.370428E1,2.780164E1,0E0,0E0,5.7869163E0,0E0,0E0],"parents":[2147483647,0,0,1,1,4,4],"right_children":[2,4,-1,-1,6,-1,-1],"split_conditions":[1E0,7E0,3.410425E-1,-3.224233E-1,2E0,3.3083338E-1,-2.0802762E-1],"split_indices":[27,10,0,0,3,0,0],"split_type":[0,0,0,0,0,0,0],"sum_hessian":[9.529775E1,6.1323925E1,3.3973827E1,5.227221E1,9.051717E0,7.512306E0,1.5394101E0],"tree_param":{"num_deleted":"0","num_feature":"28","num_nodes":"7","size_leaf_vector":"1"}},{"base_weights":[-9.894181E-2,-7.6503545E-1,3.149712E-1,-3.1284103E-1,6.78616E-1,3.0366337E-1,-1.9010517E-1],"categories":[],"categories_nodes":[],"categories_segments":[],"categories_sizes":[],"default_left":[0,0,0,0,0,0,0],"id":5,"left_children":[1,3,-1,-1,5,-1,-1],"loss_changes":[5.827648E1,2.000359E1,0E0,0E0,4.3057623E0,0E0,0E0],"parents":[2147483647,0,0,1,1,4,4],"right_children":[2,4,-1,-1,6,-1,-1],"split_conditions":[1E0,7E0,3.149712E-1,-3.1284103E-1,2E0,3.0366337E-1,-1.9010517E-1],"split_indices":[27,10,0,0,3,0,0],"split_type":[0,0,0,0,0,0,0],"sum_hessian":[7.4104996E1,4.711949E1,2.6985506E1,3.9749157E1,7.370335E0,6.058818E0,1.3115172E0],"tree_param":{"num_deleted":"0","num_feature":"28","num_nodes":"7","size_leaf_vector":"1"}},{"base_weights":[-9.534365E-2,-7.3803455E-1,2.936645E-1,-3.0501646E-1,6.105624E-1,2.816356E-1,-1.7415759E-1],"categories":[],"categories_nodes":[],"categories_segments":[],"categories_sizes":[],"default_left":[0,0,0,0,0,0,0],"id":6,"left_children":[1,3,-1,-1,5,-1,-1],"loss_changes":[4.1011528E1,1.4557606E1,0E0,0E0,3.2719886E0,0E0,0E0],"parents":[2147483647,0,0,1,1,4,4],"right_children":[2,4,-1,-1,6,-1,-1],"split_conditions":[1E0,7E0,2.936645E-1,-3.0501646E-1,2E0,2.816356E-1,-1.7415759E-1],"split_indices":[27,10,0,0,3,0,0],"split_type":[0,0,0,0,0,0,0],"sum_hessian":[5.7356586E1,3.6082184E1,2.1274403E1,3.0106731E1,5.975454E0,4.8506155E0,1.1248382E0],"tree_param":{"num_deleted":"0","num_feature":"28","num_nodes":"7","size_leaf_vector":"1"}},{"base_weights":[-9.159251E-2,-7.127422E-1,9.146822E-1,-2.980713E-1,1.6485463E-1,9.625667E-2,2.8751522E-1],"categories":[],"categories_nodes":[],"categories_segments":[],"categories_sizes":[],"default_left":[0,0,0,0,0,0,0],"id":7,"left_children":[1,3,5,-1,-1,-1,-1],"loss_changes":[2.9010221E1,1.0689471E1,1.532507E-1,0E0,0E0,0E0,0E0],"parents":[2147483647,0,0,1,1,2,2],"right_children":[2,4,6,-1,-1,-1,-1],"split_conditions":[1E0,7E0,2.2E1,-2.980713E-1,1.6485463E-1,9.625667E-2,2.8751522E-1],"split_indices":[27,10,0,0,0,0,0],"split_type":[0,0,0,0,0,0,0],"sum_hessian":[4.4369827E1,2.7615273E1,1.6754555E1,2.2763649E1,4.851624E0,1.7203338E0,1.5034222E1],"tree_param":{"num_deleted":"0","num_feature":"28","num_nodes":"7","size_leaf_vector":"1"}},{"base_weights":[-8.313559E-2,-6.7114294E-1,8.541581E-1,-2.91361E-1,4.4479015E-1,6.321081E-2,9.082367E-1,2.511507E-1,-1.7338717E-1,8.172259E-2,2.917538E-1],"categories":[],"categories_nodes":[],"categories_segments":[],"categories_sizes":[],"default_left":[0,0,0,0,0,0,0,0,0,0,0],"id":8,"left_children":[1,3,5,-1,7,-1,9,-1,-1,-1,-1],"loss_changes":[2.0441074E1,8.037009E0,3.07518E-1,0E0,2.6905093E0,0E0,2.6323605E-1,0E0,0E0,0E0,0E0],"parents":[2147483647,0,0,1,1,2,2,4,4,6,6],"right_children":[2,4,6,-1,8,-1,10,-1,-1,-1,-1],"split_conditions":[1E0,7E0,1.5E1,-2.91361E-1,2E0,6.321081E-2,2E0,2.511507E-1,-1.7338717E-1,8.172259E-2,2.917538E-1],"split_indices":[27,10,2,0,3,0,3,0,0,0,0],"split_type":[0,0,0,0,0,0,0,0,0,0,0],"sum_hessian":[3.5048866E1,2.1711931E1,1.3336935E1,1.7213211E1,4.498721E0,1.4135855E0,1.1923349E1,3.382478E0,1.1162429E0,1.575578E0,1.0347772E1],"tree_param":{"num_deleted":"0","num_feature":"28","num_nodes":"11","size_leaf_vector":"1"}},{"base_weights":[-7.268183E-2,-6.456442E-1,7.954181E-1,-2.8438282E-1,3.96896E-1,8.6263424E-1,2.2633422E-2,1.5288381E-1,4.821598E-2,7.0140585E-2,2.812533E-1],"categories":[],"categories_nodes":[],"categories_segments":[],"categories_sizes":[],"default_left":[0,0,0,0,0,0,0,0,0,0,0],"id":9,"left_children":[1,3,5,-1,7,9,-1,-1,-1,-1,-1],"loss_changes":[1.4696371E1,5.963745E0,5.0525665E-1,0E0,4.295087E-2,2.838254E-1,0E0,0E0,0E0,0E0,0E0],"parents":[2147483647,0,0,1,1,2,2,4,4,5,5],"right_children":[2,4,6,-1,8,10,-1,-1,-1,-1,-1],"split_conditions":[1E0,7E0,1.4556213E-1,-2.8438282E-1,8E0,2E0,2.2633422E-2,1.5288381E-1,4.821598E-2,7.0140585E-2,2.812533E-1],"split_indices":[27,10,4,0,10,3,0,0,0,0,0],"split_type":[0,0,0,0,0,0,0,0,0,0,0],"sum_hessian":[2.7514555E1,1.6729214E1,1.0785341E1,1.3039091E1,3.6901224E0,9.68318E0,1.1021612E0,1.7142289E0,1.9758936E0,1.4689645E0,8.214215E0],"tree_param":{"num_deleted":"0","num_feature":"28","num_nodes":"11","size_leaf_vector":"1"}},{"base_weights":[-5.7500325E-2,-5.927558E-1,7.3475325E-1,-2.7673674E-1,3.365272E-1,1.6382216E-1,2.710946E-1,2.2660057E-1,-1.6501775E-1,1.516726E-2,5.7693835E-2],"categories":[],"categories_nodes":[],"categories_segments":[],"categories_sizes":[],"default_left":[0,0,0,0,0,0,0,0,0,0,0],"id":10,"left_children":[1,3,5,-1,7,9,-1,-1,-1,-1,-1],"loss_changes":[1.0288084E1,4.7283297E0,7.9835415E-1,0E0,2.089653E0,1.4489293E-3,0E0,0E0,0E0,0E0,0E0],"parents":[2147483647,0,0,1,1,2,2,4,4,5,5],"right_children":[2,4,6,-1,8,10,-1,-1,-1,-1,-1],"split_conditions":[1E0,7E0,1.8E1,-2.7673674E-1,2E0,1.5E1,2.710946E-1,2.2660057E-1,-1.6501775E-1,1.516726E-2,5.7693835E-2],"split_indices":[27,10,2,0,3,2,0,0,0,0,0],"split_type":[0,0,0,0,0,0,0,0,0,0,0],"sum_hessian":[2.2233978E1,1.3419454E1,8.814525E0,9.910617E0,3.508837E0,2.461996E0,6.352528E0,2.4836464E0,1.0251905E0,1.0524617E0,1.4095345E0],"tree_param":{"num_deleted":"0","num_feature":"28","num_nodes":"11","size_leaf_vector":"1"}},{"base_weights":[-4.7962267E-2,-5.653218E-1,6.7206496E-1,-2.6811802E-1,2.9766324E-1,1.3992383E-1,2.5829694E-1,1.18576445E-1,3.0194424E-2,1.2940567E-2,4.93407E-2],"categories":[],"categories_nodes":[],"categories_segments":[],"categories_sizes":[],"default_left":[0,0,0,0,0,0,0,0,0,0,0],"id":11,"left_children":[1,3,5,-1,7,9,-1,-1,-1,-1,-1],"loss_changes":[7.386069E0,3.5216134E0,7.1602726E-1,0E0,3.552282E-2,9.2139095E-4,0E0,0E0,0E0,0E0,0E0],"parents":[2147483647,0,0,1,1,2,2,4,4,5,5],"right_children":[2,4,6,-1,8,10,-1,-1,-1,-1,-1],"split_conditions":[1E0,7E0,1.8E1,-2.6811802E-1,8E0,1.5E1,2.5829694E-1,1.18576445E-1,3.0194424E-2,1.2940567E-2,4.93407E-2],"split_indices":[27,10,2,0,10,2,0,0,0,0,0],"split_type":[0,0,0,0,0,0,0,0,0,0,0],"sum_hessian":[1.7807764E1,1.04872465E1,7.320517E0,7.570649E0,2.9165974E0,2.3740904E0,4.946427E0,1.2775484E0,1.6390488E0,1.0380691E0,1.3360214E0],"tree_param":{"num_deleted":"0","num_feature":"28","num_nodes":"11","size_leaf_vector":"1"}},{"base_weights":[-3.315441E-2,-5.0862175E-1,6.0979295E-1,-2.5833094E-1,2.5403482E-1,1.194257E-1,2.4498889E-1,1.0338203E-1,2.4652695E-2,1.1040725E-2,4.2149853E-2],"categories":[],"categories_nodes":[],"categories_segments":[],"categories_sizes":[],"default_left":[0,0,0,0,0,0,0,0,0,0,0],"id":12,"left_children":[1,3,5,-1,7,9,-1,-1,-1,-1,-1],"loss_changes":[5.1474724E0,2.8107002E0,6.308987E-1,0E0,3.1140387E-2,5.7850406E-4,0E0,0E0,0E0,0E0,0E0],"parents":[2147483647,0,0,1,1,2,2,4,4,5,5],"right_children":[2,4,6,-1,8,10,-1,-1,-1,-1,-1],"split_conditions":[1E0,7E0,1.8E1,-2.5833094E-1,8E0,1.5E1,2.4498889E-1,1.0338203E-1,2.4652695E-2,1.1040725E-2,4.2149853E-2],"split_indices":[27,10,2,0,10,2,0,0,0,0,0],"split_type":[0,0,0,0,0,0,0,0,0,0,0],"sum_hessian":[1.482372E1,8.641872E0,6.181847E0,5.822001E0,2.8198717E0,2.3019018E0,3.8799455E0,1.1884003E0,1.6314713E0,1.0259309E0,1.2759708E0],"tree_param":{"num_deleted":"0","num_feature":"28","num_nodes":"11","size_leaf_vector":"1"}},{"base_weights":[-1.9728713E-2,-4.5213336E-1,5.491535E-1,-2.4731064E-1,2.1643971E-1,1.01878785E-1,2.3113121E-1,8.9807734E-2,2.0116774E-2,9.419473E-3,3.5978064E-2],"categories":[],"categories_nodes":[],"categories_segments":[],"categories_sizes":[],"default_left":[0,0,0,0,0,0,0,0,0,0,0],"id":13,"left_children":[1,3,5,-1,7,9,-1,-1,-1,-1,-1],"loss_changes":[3.5878038E0,2.2344728E0,5.464661E-1,0E0,2.6336446E-2,3.5889074E-4,0E0,0E0,0E0,0E0,0E0],"parents":[2147483647,0,0,1,1,2,2,4,4,5,5],"right_children":[2,4,6,-1,8,10,-1,-1,-1,-1,-1],"split_conditions":[1E0,7E0,1.8E1,-2.4731064E-1,8E0,1.5E1,2.3113121E-1,8.9807734E-2,2.0116774E-2,9.419473E-3,3.5978064E-2],"split_indices":[27,10,2,0,10,2,0,0,0,0,0],"split_type":[0,0,0,0,0,0,0,0,0,0,0],"sum_hessian":[1.2575957E1,7.2616425E0,5.314315E0,4.514897E0,2.7467456E0,2.242339E0,3.071976E0,1.1207075E0,1.6260382E0,1.0156744E0,1.2266645E0],"tree_param":{"num_deleted":"0","num_feature":"28","num_nodes":"11","size_leaf_vector":"1"}},{"base_weights":[-8.221733E-3,-3.9786616E-1,4.914904E-1,-2.3513849E-1,1.8422185E-1,8.687918E-2,2.1686725E-1,7.779938E-2,1.6409084E-2,8.036442E-3,3.0691886E-2],"categories":[],"categories_nodes":[],"categories_segments":[],"categories_sizes":[],"default_left":[0,0,0,0,0,0,0,0,0,0,0],"id":14,"left_children":[1,3,5,-1,7,9,-1,-1,-1,-1,-1],"loss_changes":[2.5086203E0,1.7680192E0,4.6638024E-1,0E0,2.1725014E-2,2.1940097E-4,0E0,0E0,0E0,0E0,0E0],"parents":[2147483647,0,0,1,1,2,2,4,4,5,5],"right_children":[2,4,6,-1,8,10,-1,-1,-1,-1,-1],"split_conditions":[1E0,7E0,1.8E1,-2.3513849E-1,8E0,1.5E1,2.1686725E-1,7.779938E-2,1.6409084E-2,8.036442E-3,3.0691886E-2],"split_indices":[27,10,2,0,10,2,0,0,0,0,0],"split_type":[0,0,0,0,0,0,0,0,0,0,0],"sum_hessian":[1.0879577E1,6.2275386E0,4.6520376E0,3.5363731E0,2.6911654E0,2.1929834E0,2.4590545E0,1.0690614E0,1.622104E0,1.0069982E0,1.1859852E0],"tree_param":{"num_deleted":"0","num_feature":"28","num_nodes":"11","size_leaf_vector":"1"}},{"base_weights":[1.0445472E-3,-6.934768E-1,2.6460615E-1,-2.2884456E-2,-2.8329167E-1,5.740008E-1,-3.192944E-1,7.544927E-2,2.187292E-1,-2.4350451E-1,7.63918E-2],"categories":[],"categories_nodes":[],"categories_segments":[],"categories_sizes":[],"default_left":[0,0,0,0,0,0,0,0,0,0,0],"id":15,"left_children":[1,3,5,-1,-1,7,9,-1,-1,-1,-1],"loss_changes":[2.1228604E0,4.2192376E-1,1.7015126E0,0E0,0E0,1.0928142E-1,1.2108465E0,0E0,0E0,0E0,0E0],"parents":[2147483647,0,0,1,1,2,2,5,5,6,6],"right_children":[2,4,6,-1,-1,8,10,-1,-1,-1,-1],"split_conditions":[2.7E1,2E0,3.2E1,-2.2884456E-2,-2.8329167E-1,1E0,2.2822006E0,7.544927E-2,2.187292E-1,-2.4350451E-1,7.63918E-2],"split_indices":[0,1,0,0,0,27,8,0,0,0,0],"split_type":[0,0,0,0,0,0,0,0,0,0,0],"sum_hessian":[9.594762E0,2.1907244E0,7.404038E0,1.0098877E0,1.1808367E0,4.850716E0,2.5533216E0,2.4265575E0,2.4241586E0,1.1513319E0,1.4019898E0],"tree_param":{"num_deleted":"0","num_feature":"28","num_nodes":"11","size_leaf_vector":"1"}},{"base_weights":[-1.7707447E-2,-4.5506242E-1,3.6591414E-1,-2.7727944E-1,-8.263579E-2,5.2050408E-2,1.9776452E-1,1.5023148E-1,-2.0148131E-1,1.4111021E-1,-1.6079028E-1],"categories":[],"categories_nodes":[],"categories_segments":[],"categories_sizes":[],"default_left":[0,0,0,0,0,0,0,0,0,0,0],"id":16,"left_children":[1,3,5,-1,7,9,-1,-1,-1,-1,-1],"loss_changes":[1.7878193E0,7.905501E-1,4.9061275E-1,0E0,1.6640205E0,1.1967236E0,0E0,0E0,0E0,0E0,0E0],"parents":[2147483647,0,0,1,1,2,2,4,4,5,5],"right_children":[2,4,6,-1,8,10,-1,-1,-1,-1,-1],"split_conditions":[1.8E1,2.7E1,1E0,-2.7727944E-1,2.8E1,2E0,1.9776452E-1,1.5023148E-1,-2.0148131E-1,1.4111021E-1,-1.6079028E-1],"split_indices":[2,0,27,0,0,3,0,0,0,0,0],"split_type":[0,0,0,0,0,0,0,0,0,0,0],"sum_hessian":[8.663351E0,3.9611454E0,4.702205E0,1.0971555E0,2.8639898E0,2.8402715E0,1.8619338E0,1.5140167E0,1.3499731E0,1.7765273E0,1.0637443E0],"tree_param":{"num_deleted":"0","num_feature":"28","num_nodes":"11","size_leaf_vector":"1"}},{"base_weights":[-3.1254623E-2,-4.3144846E-1,3.2889247E-1,-1.938558E-1,-1.895795E-2,3.3529818E-2,1.8363667E-1,9.759684E-4,1.4331382E-2],"categories":[],"categories_nodes":[],"categories_segments":[],"categories_sizes":[],"default_left":[0,0,0,0,0,0,0,0,0],"id":17,"left_children":[1,3,5,-1,-1,7,-1,-1,-1],"loss_changes":[1.3774458E0,3.1446904E-1,4.0439987E-1,0E0,0E0,1.3728817E-3,0E0,0E0,0E0],"parents":[2147483647,0,0,1,1,2,2,5,5],"right_children":[2,4,6,-1,-1,8,-1,-1,-1],"split_conditions":[1.8E1,1E0,1E0,-1.938558E-1,-1.895795E-2,1E0,1.8363667E-1,9.759684E-4,1.4331382E-2],"split_indices":[2,27,27,0,0,7,0,0,0],"split_type":[0,0,0,0,0,0,0,0,0],"sum_hessian":[7.5725193E0,3.493064E0,4.0794554E0,1.7297099E0,1.7633541E0,2.5444207E0,1.5350347E0,1.2069473E0,1.3374734E0],"tree_param":{"num_deleted":"0","num_feature":"28","num_nodes":"9","size_leaf_vector":"1"}},{"base_weights":[-2.5663596E-2,-1.9981164E-1,2.1321824E-1,4.94501E-1,-8.8819265E-2,6.3387476E-2,1.8960746E-1],"categories":[],"categories_nodes":[],"categories_segments":[],"categories_sizes":[],"default_left":[0,0,0,0,0,0,0],"id":18,"left_children":[1,-1,3,5,-1,-1,-1],"loss_changes":[1.3741772E0,0E0,1.0952907E0,4.72399E-2,0E0,0E0,0E0],"parents":[2147483647,0,0,2,2,3,3],"right_children":[2,-1,4,6,-1,-1,-1],"split_conditions":[2.7E1,-1.9981164E-1,3.2E1,1E0,-8.8819265E-2,6.3387476E-2,1.8960746E-1],"split_indices":[0,0,0,27,0,0,0],"split_type":[0,0,0,0,0,0,0],"sum_hessian":[7.054739E0,1.4308583E0,5.623881E0,3.6416037E0,1.9822769E0,2.0193858E0,1.622218E0],"tree_param":{"num_deleted":"0","num_feature":"28","num_nodes":"7","size_leaf_vector":"1"}},{"base_weights":[-2.128226E-2,-4.087796E-1,3.1019014E-1,-1.7336087E-1,-3.2155447E-2,-2.3811186E-2,1.477422E-1],"categories":[],"categories_nodes":[],"categories_segments":[],"categories_sizes":[],"default_left":[0,0,0,0,0,0,0],"id":19,"left_children":[1,3,5,-1,-1,-1,-1],"loss_changes":[1.111681E0,1.4034247E-1,3.7292224E-1,0E0,0E0,0E0,0E0],"parents":[2147483647,0,0,1,1,2,2],"right_children":[2,4,6,-1,-1,-1,-1],"split_conditions":[1.8E1,1E0,3E0,-1.7336087E-1,-3.2155447E-2,-2.3811186E-2,1.477422E-1],"split_indices":[2,27,1,0,0,0,0],"split_type":[0,0,0,0,0,0,0],"sum_hessian":[6.6677494E0,2.9665613E0,3.7011883E0,1.313883E0,1.6526784E0,1.3597748E0,2.3414135E0],"tree_param":{"num_deleted":"0","num_feature":"28","num_nodes":"7","size_leaf_vector":"1"}},{"base_weights":[-2.7021283E-2,-1.6592339E-1,1.7387466E-1,4.350691E-1,-7.725428E-2,4.365049E-2,1.7678587E-1],"categories":[],"categories_nodes":[],"categories_segments":[],"categories_sizes":[],"default_left":[0,0,0,0,0,0,0],"id":20,"left_children":[1,-1,3,5,-1,-1,-1],"loss_changes":[8.6821145E-1,0E0,7.934226E-1,9.906703E-2,0E0,0E0,0E0],"parents":[2147483647,0,0,2,2,3,3],"right_children":[2,-1,4,6,-1,-1,-1],"split_conditions":[2.7E1,-1.6592339E-1,3.2E1,1E0,-7.725428E-2,4.365049E-2,1.7678587E-1],"split_indices":[0,0,0,27,0,0,0],"split_type":[0,0,0,0,0,0,0],"sum_hessian":[6.305317E0,1.2580334E0,5.0472836E0,3.1384842E0,1.9087992E0,1.7660068E0,1.3724774E0],"tree_param":{"num_deleted":"0","num_feature":"28","num_nodes":"7","size_leaf_vector":"1"}},{"base_weights":[-2.0312935E-2,-3.8265356E-1,2.8139883E-1,-1.5524638E-1,-3.878064E-2,-2.0863071E-2,1.7138912E-1,-1.2122626E-2,2.3527031E-3],"categories":[],"categories_nodes":[],"categories_segments":[],"categories_sizes":[],"default_left":[0,0,0,0,0,0,0,0,0],"id":21,"left_children":[1,3,5,-1,-1,7,-1,-1,-1],"loss_changes":[8.798517E-1,5.7224512E-2,4.001263E-1,0E0,0E0,2.0751012E-3,0E0,0E0,0E0],"parents":[2147483647,0,0,1,1,2,2,5,5],"right_children":[2,4,6,-1,-1,8,-1,-1,-1],"split_conditions":[1.8E1,1E0,1E0,-1.5524638E-1,-3.878064E-2,1E0,1.7138912E-1,-1.2122626E-2,2.3527031E-3],"split_indices":[2,27,27,0,0,7,0,0,0],"split_type":[0,0,0,0,0,0,0,0,0],"sum_hessian":[6.0632663E0,2.6329505E0,3.430316E0,1.0381932E0,1.5947573E0,2.1336756E0,1.2966404E0,1.0268098E0,1.1068658E0],"tree_param":{"num_deleted":"0","num_feature":"28","num_nodes":"9","size_leaf_vector":"1"}},{"base_weights":[-1.8549282E-2,-1.5019229E-1,1.636966E-1,-7.247244E-2,4.0268227E-1,-1.8221762E-2,1.9266404E-1],"categories":[],"categories_nodes":[],"categories_segments":[],"categories_sizes":[],"default_left":[0,0,0,0,0,0,0],"id":22,"left_children":[1,-1,3,-1,5,-1,-1],"loss_changes":[6.771888E-1,0E0,6.464344E-1,0E0,4.765466E-1,0E0,0E0],"parents":[2147483647,0,0,2,2,4,4],"right_children":[2,-1,4,-1,6,-1,-1],"split_conditions":[2.7E1,-1.5019229E-1,1E0,-7.247244E-2,1E0,-1.8221762E-2,1.9266404E-1],"split_indices":[0,0,7,0,27,0,0],"split_type":[0,0,0,0,0,0,0],"sum_hessian":[5.774879E0,1.1049396E0,4.6699395E0,1.7282845E0,2.941655E0,1.2567136E0,1.6849413E0],"tree_param":{"num_deleted":"0","num_feature":"28","num_nodes":"7","size_leaf_vector":"1"}},{"base_weights":[-1.6593188E-2,-1.1052681E-1,2.7149075E-1,1.4504823E-1,-2.4810517E-2],"categories":[],"categories_nodes":[],"categories_segments":[],"categories_sizes":[],"default_left":[0,0,0,0,0],"id":23,"left_children":[1,-1,3,-1,-1],"loss_changes":[7.596064E-1,0E0,3.5188302E-1,0E0,0E0],"parents":[2147483647,0,0,2,2],"right_children":[2,-1,4,-1,-1],"split_conditions":[1.8E1,-1.1052681E-1,2E0,1.4504823E-1,-2.4810517E-2],"split_indices":[2,0,3,0,0],"split_type":[0,0,0,0,0],"sum_hessian":[5.5075603E0,2.3539135E0,3.1536467E0,1.744443E0,1.4092035E0],"tree_param":{"num_deleted":"0","num_feature":"28","num_nodes":"5","size_leaf_vector":"1"}},{"base_weights":[-7.7503994E-3,-1.3506652E-1,1.610163E-1,4.1278833E-1,-7.513831E-2,4.074731E-2,1.6441363E-1],"categories":[],"categories_nodes":[],"categories_segments":[],"categories_sizes":[],"default_left":[0,0,0,0,0,0,0],"id":24,"left_children":[1,-1,3,5,-1,-1,-1],"loss_changes":[5.518949E-1,0E0,6.611505E-1,6.483483E-2,0E0,0E0,0E0],"parents":[2147483647,0,0,2,2,3,3],"right_children":[2,-1,4,6,-1,-1,-1],"split_conditions":[2.7E1,-1.3506652E-1,3.2E1,1E0,-7.513831E-2,4.074731E-2,1.6441363E-1],"split_indices":[0,0,0,27,0,0,0],"split_type":[0,0,0,0,0,0,0],"sum_hessian":[5.4198933E0,1.0359998E0,4.3838935E0,2.717774E0,1.6661198E0,1.549362E0,1.168412E0],"tree_param":{"num_deleted":"0","num_feature":"28","num_nodes":"7","size_leaf_vector":"1"}},{"base_weights":[-3.8566382E-3,-9.191708E-2,2.5058115E-1,-8.336458E-3,1.5605834E-1],"categories":[],"categories_nodes":[],"categories_segments":[],"categories_sizes":[],"default_left":[0,0,0,0,0],"id":25,"left_children":[1,-1,3,-1,-1],"loss_changes":[5.589917E-1,0E0,3.1112325E-1,0E0,0E0],"parents":[2147483647,0,0,2,2],"right_children":[2,-1,4,-1,-1],"split_conditions":[1.8E1,-9.191708E-2,1E0,-8.336458E-3,1.5605834E-1],"split_indices":[2,0,27,0,0],"split_type":[0,0,0,0,0],"sum_hessian":[5.2645E0,2.311672E0,2.9528282E0,1.8941238E0,1.0587044E0],"tree_param":{"num_deleted":"0","num_feature":"28","num_nodes":"5","size_leaf_vector":"1"}},{"base_weights":[8.767744E-3,-2.3578498E-1,2.243601E-1,-1.9021126E-2,-9.5939904E-2,1.2674409E-1,-2.8275834E-2],"categories":[],"categories_nodes":[],"categories_segments":[],"categories_sizes":[],"default_left":[0,0,0,0,0,0,0],"id":26,"left_children":[1,3,5,-1,-1,-1,-1],"loss_changes":[3.792645E-1,2.8787956E-2,2.7983165E-1,0E0,0E0,0E0,0E0],"parents":[2147483647,0,0,1,1,2,2],"right_children":[2,4,6,-1,-1,-1,-1],"split_conditions":[1.8E1,2.8E1,2E0,-1.9021126E-2,-9.5939904E-2,1.2674409E-1,-2.8275834E-2],"split_indices":[2,0,3,0,0,0,0],"split_type":[0,0,0,0,0,0,0],"sum_hessian":[5.190078E0,2.3878305E0,2.8022473E0,1.3573978E0,1.0304327E0,1.5268321E0,1.2754153E0],"tree_param":{"num_deleted":"0","num_feature":"28","num_nodes":"7","size_leaf_vector":"1"}},{"base_weights":[4.966536E-3,-2.3517826E-1,2.2502628E-1,5.8979217E-2,-1.6755033E-1,-2.3962354E-2,1.5614448E-1],"categories":[],"categories_nodes":[],"categories_segments":[],"categories_sizes":[],"default_left":[0,0,0,0,0,0,0],"id":27,"left_children":[1,3,5,-1,-1,-1,-1],"loss_changes":[3.7584653E-1,5.8597904E-1,3.7485975E-1,0E0,0E0,0E0,0E0],"parents":[2147483647,0,0,1,1,2,2],"right_children":[2,4,6,-1,-1,-1,-1],"split_conditions":[1E0,2E0,3.3E1,5.8979217E-2,-1.6755033E-1,-2.3962354E-2,1.5614448E-1],"split_indices":[27,3,0,0,0,0,0],"split_type":[0,0,0,0,0,0,0],"sum_hessian":[5.110662E0,2.410955E0,2.699707E0,1.2001642E0,1.2107908E0,1.6877043E0,1.0120026E0],"tree_param":{"num_deleted":"0","num_feature":"28","num_nodes":"7","size_leaf_vector":"1"}},{"base_weights":[7.1318164E-3,-7.534921E-2,1.7566219E-1,-4.3006822E-2,1.2353634E-1],"categories":[],"categories_nodes":[],"categories_segments":[],"categories_sizes":[],"default_left":[0,0,0,0,0],"id":28,"left_children":[1,-1,3,-1,-1],"loss_changes":[2.969315E-1,0E0,3.6810294E-1,0E0,0E0],"parents":[2147483647,0,0,2,2],"right_children":[2,-1,4,-1,-1],"split_conditions":[1E0,-7.534921E-2,3.1E1,-4.3006822E-2,1.2353634E-1],"split_indices":[7,0,0,0,0],"split_type":[0,0,0,0,0],"sum_hessian":[4.8076606E0,1.7046824E0,3.102978E0,1.4869337E0,1.6160444E0],"tree_param":{"num_deleted":"0","num_feature":"28","num_nodes":"5","size_leaf_vector":"1"}},{"base_weights":[7.4128048E-3,7.647224E-2,-1.8143801E-1,-1.3405044E-1,8.5823685E-2],"categories":[],"categories_nodes":[],"categories_segments":[],"categories_sizes":[],"default_left":[0,0,0,0,0],"id":29,"left_children":[1,-1,3,-1,-1],"loss_changes":[3.146169E-1,0E0,6.0439956E-1,0E0,0E0],"parents":[2147483647,0,0,2,2],"right_children":[2,-1,4,-1,-1],"split_conditions":[1.6E-1,7.647224E-2,3.5E1,-1.3405044E-1,8.5823685E-2],"split_indices":[8,0,0,0,0],"split_type":[0,0,0,0,0],"sum_hessian":[4.7417517E0,1.9008493E0,2.840902E0,1.8403966E0,1.0005056E0],"tree_param":{"num_deleted":"0","num_feature":"28","num_nodes":"5","size_leaf_vector":"1"}},{"base_weights":[1.1641177E-2,-2.3136121E-1,6.46702E-2,4.4721708E-2,-1.5334605E-1],"categories":[],"categories_nodes":[],"categories_segments":[],"categories_sizes":[],"default_left":[0,0,0,0,0],"id":30,"left_children":[1,3,-1,-1,-1],"loss_changes":[3.3375382E-1,4.0576708E-1,0E0,0E0,0E0],"parents":[2147483647,0,0,1,1],"right_children":[2,4,-1,-1,-1],"split_conditions":[1E0,2E0,6.46702E-2,4.4721708E-2,-1.5334605E-1],"split_indices":[27,3,0,0,0],"split_type":[0,0,0,0,0],"sum_hessian":[4.728636E0,2.096213E0,2.6324227E0,1.0863315E0,1.0098816E0],"tree_param":{"num_deleted":"0","num_feature":"28","num_nodes":"5","size_leaf_vector":"1"}},{"base_weights":[-5.620455E-4,1.6135463E-1,-8.7470755E-2,9.932008E-2,-1.8477367E-2],"categories":[],"categories_nodes":[],"categories_segments":[],"categories_sizes":[],"default_left":[0,0,0,0,0],"id":31,"left_children":[1,3,-1,-1,-1],"loss_changes":[3.0277783E-1,1.7668939E-1,0E0,0E0,0E0],"parents":[2147483647,0,0,1,1],"right_children":[2,4,-1,-1,-1],"split_conditions":[3.2E1,1.6E-1,-8.7470755E-2,9.932008E-2,-1.8477367E-2],"split_indices":[0,8,0,0,0],"split_type":[0,0,0,0,0],"sum_hessian":[4.4273715E0,3.130878E0,1.2964936E0,1.5023125E0,1.6285654E0],"tree_param":{"num_deleted":"0","num_feature":"28","num_nodes":"5","size_leaf_vector":"1"}},{"base_weights":[-7.259915E-4,-8.4677845E-2,1.8473858E-1,1.1707546E-1,-5.3273574E-2],"categories":[],"categories_nodes":[],"categories_segments":[],"categories_sizes":[],"default_left":[0,0,0,0,0],"id":32,"left_children":[1,-1,3,-1,-1],"loss_changes":[3.337404E-1,0E0,3.5639647E-1,0E0,0E0],"parents":[2147483647,0,0,2,2],"right_children":[2,-1,4,-1,-1],"split_conditions":[1E0,-8.4677845E-2,2.5276442E0,1.1707546E-1,-5.3273574E-2],"split_indices":[7,0,1,0,0],"split_type":[0,0,0,0,0],"sum_hessian":[4.3930664E0,1.5374011E0,2.8556654E0,1.7729287E0,1.0827368E0],"tree_param":{"num_deleted":"0","num_feature":"28","num_nodes":"5","size_leaf_vector":"1"}},{"base_weights":[-2.9474555E-3,-6.4730816E-2,2.0146552E-1,5.997918E-3,8.8518396E-2],"categories":[],"categories_nodes":[],"categories_segments":[],"categories_sizes":[],"default_left":[0,0,0,0,0],"id":33,"left_children":[1,-1,3,-1,-1],"loss_changes":[2.7558056E-1,0E0,4.910907E-2,0E0,0E0],"parents":[2147483647,0,0,2,2],"right_children":[2,-1,4,-1,-1],"split_conditions":[1.8E1,-6.4730816E-2,4E0,5.997918E-3,8.8518396E-2],"split_indices":[2,0,10,0,0],"split_type":[0,0,0,0,0],"sum_hessian":[4.335437E0,2.0968122E0,2.2386248E0,1.1746712E0,1.0639536E0],"tree_param":{"num_deleted":"0","num_feature":"28","num_nodes":"5","size_leaf_vector":"1"}},{"base_weights":[4.3250476E-3,-6.946161E-2,5.7934713E-2],"categories":[],"categories_nodes":[],"categories_segments":[],"categories_sizes":[],"default_left":[0,0,0],"id":34,"left_children":[1,-1,-1],"loss_changes":[2.8304031E-1,0E0,0E0],"parents":[2147483647,0,0],"right_children":[2,-1,-1],"split_conditions":[1E0,-6.946161E-2,5.7934713E-2],"split_indices":[27,0,0],"split_type":[0,0,0],"sum_hessian":[4.3521814E0,1.834205E0,2.5179763E0],"tree_param":{"num_deleted":"0","num_feature":"28","num_nodes":"3","size_leaf_vector":"1"}},{"base_weights":[1.3449745E-3,6.884325E-2,-1.693187E-1,-1.06928445E-1,3.9804082E-2],"categories":[],"categories_nodes":[],"categories_segments":[],"categories_sizes":[],"default_left":[0,0,0,0,0],"id":35,"left_children":[1,-1,3,-1,-1],"loss_changes":[2.4069963E-1,0E0,2.4738818E-1,0E0,0E0],"parents":[2147483647,0,0,2,2],"right_children":[2,-1,4,-1,-1],"split_conditions":[1.6E-1,6.884325E-2,1.8E1,-1.06928445E-1,3.9804082E-2],"split_indices":[8,0,2,0,0],"split_type":[0,0,0,0,0],"sum_hessian":[4.18429E0,1.6431764E0,2.5411136E0,1.4577229E0,1.0833906E0],"tree_param":{"num_deleted":"0","num_feature":"28","num_nodes":"5","size_leaf_vector":"1"}},{"base_weights":[2.4427965E-3,-7.490836E-2,1.7143421E-1,1.0789431E-1,-4.9743827E-2],"categories":[],"categories_nodes":[],"categories_segments":[],"categories_sizes":[],"default_left":[0,0,0,0,0],"id":36,"left_children":[1,-1,3,-1,-1],"loss_changes":[2.6552907E-1,0E0,2.959172E-1,0E0,0E0],"parents":[2147483647,0,0,2,2],"right_children":[2,-1,4,-1,-1],"split_conditions":[1E0,-7.490836E-2,2.5276442E0,1.0789431E-1,-4.9743827E-2],"split_indices":[7,0,1,0,0],"split_type":[0,0,0,0,0],"sum_hessian":[4.2271276E0,1.5046352E0,2.7224925E0,1.7046983E0,1.0177941E0],"tree_param":{"num_deleted":"0","num_feature":"28","num_nodes":"5","size_leaf_vector":"1"}},{"base_weights":[-2.987142E-4,6.836373E-2,-1.7069554E-1,-9.691305E-2,2.7907439E-2],"categories":[],"categories_nodes":[],"categories_segments":[],"categories_sizes":[],"default_left":[0,0,0,0,0],"id":37,"left_children":[1,-1,3,-1,-1],"loss_changes":[2.4055927E-1,0E0,1.7231935E-1,0E0,0E0],"parents":[2147483647,0,0,2,2],"right_children":[2,-1,4,-1,-1],"split_conditions":[1.6E-1,6.836373E-2,1.8E1,-9.691305E-2,2.7907439E-2],"split_indices":[8,0,2,0,0],"split_type":[0,0,0,0,0],"sum_hessian":[4.1866593E0,1.6456423E0,2.5410173E0,1.4680158E0,1.0730015E0],"tree_param":{"num_deleted":"0","num_feature":"28","num_nodes":"5","size_leaf_vector":"1"}},{"base_weights":[6.677339E-4,-6.707892E-2,5.5036128E-2],"categories":[],"categories_nodes":[],"categories_segments":[],"categories_sizes":[],"default_left":[0,0,0],"id":38,"left_children":[1,-1,-1],"loss_changes":[2.5528896E-1,0E0,0E0],"parents":[2147483647,0,0],"right_children":[2,-1,-1],"split_conditions":[1E0,-6.707892E-2,5.5036128E-2],"split_indices":[27,0,0],"split_type":[0,0,0],"sum_hessian":[4.227058E0,1.7979032E0,2.4291549E0],"tree_param":{"num_deleted":"0","num_feature":"28","num_nodes":"3","size_leaf_vector":"1"}},{"base_weights":[-1.5177462E-3,-6.766685E-2,1.5264472E-1,9.597442E-2,-4.237311E-2],"categories":[],"categories_nodes":[],"categories_segments":[],"categories_sizes":[],"default_left":[0,0,0,0,0],"id":39,"left_children":[1,-1,3,-1,-1],"loss_changes":[2.097378E-1,0E0,2.223128E-1,0E0,0E0],"parents":[2147483647,0,0,2,2],"right_children":[2,-1,4,-1,-1],"split_conditions":[1E0,-6.766685E-2,2.5276442E0,9.597442E-2,-4.237311E-2],"split_indices":[7,0,1,0,0],"split_type":[0,0,0,0,0],"sum_hessian":[4.07575E0,1.4725877E0,2.603162E0,1.602514E0,1.000648E0],"tree_param":{"num_deleted":"0","num_feature":"28","num_nodes":"5","size_leaf_vector":"1"}},{"base_weights":[-2.9527345E-3,7.300624E-2,-1.9099373E-1,-9.686794E-2,1.8610908E-2],"categories":[],"categories_nodes":[],"categories_segments":[],"categories_sizes":[],"default_left":[0,0,0,0,0],"id":40,"left_children":[1,-1,3,-1,-1],"loss_changes":[2.8054285E-1,0E0,1.3437428E-1,0E0,0E0],"parents":[2147483647,0,0,2,2],"right_children":[2,-1,4,-1,-1],"split_conditions":[1.6E-1,7.300624E-2,1.8E1,-9.686794E-2,1.8610908E-2],"split_indices":[8,0,2,0,0],"split_type":[0,0,0,0,0],"sum_hessian":[4.0536485E0,1.627587E0,2.4260616E0,1.413255E0,1.0128065E0],"tree_param":{"num_deleted":"0","num_feature":"28","num_nodes":"5","size_leaf_vector":"1"}},{"base_weights":[-2.0376202E-3,-5.862524E-2,4.813965E-2],"categories":[],"categories_nodes":[],"categories_segments":[],"categories_sizes":[],"default_left":[0,0,0],"id":41,"left_children":[1,-1,-1],"loss_changes":[1.9131017E-1,0E0,0E0],"parents":[2147483647,0,0],"right_children":[2,-1,-1],"split_conditions":[1E0,-5.862524E-2,4.813965E-2],"split_indices":[27,0,0],"split_type":[0,0,0],"sum_hessian":[4.0900006E0,1.7750878E0,2.3149128E0],"tree_param":{"num_deleted":"0","num_feature":"28","num_nodes":"3","size_leaf_vector":"1"}},{"base_weights":[-3.2816383E-3,6.6405356E-2,-1.7267619E-1,2.3431854E-2,-1.0223645E-1],"categories":[],"categories_nodes":[],"categories_segments":[],"categories_sizes":[],"default_left":[0,0,0,0,0],"id":42,"left_children":[1,-1,3,-1,-1],"loss_changes":[2.2724962E-1,0E0,1.6969886E-1,0E0,0E0],"parents":[2147483647,0,0,2,2],"right_children":[2,-1,4,-1,-1],"split_conditions":[1.6E-1,6.6405356E-2,1.6E1,2.3431854E-2,-1.0223645E-1],"split_indices":[8,0,2,0,0],"split_type":[0,0,0,0,0],"sum_hessian":[3.9676666E0,1.5738614E0,2.3938053E0,1.1755544E0,1.2182508E0],"tree_param":{"num_deleted":"0","num_feature":"28","num_nodes":"5","size_leaf_vector":"1"}},{"base_weights":[-4.385471E-3,-6.994394E-2,1.5618026E-1,-2.7850803E-2,1.03134006E-1],"categories":[],"categories_nodes":[],"categories_segments":[],"categories_sizes":[],"default_left":[0,0,0,0,0],"id":43,"left_children":[1,-1,3,-1,-1],"loss_changes":[2.176139E-1,0E0,1.953013E-1,0E0,0E0],"parents":[2147483647,0,0,2,2],"right_children":[2,-1,4,-1,-1],"split_conditions":[1E0,-6.994394E-2,3.1E1,-2.7850803E-2,1.03134006E-1],"split_indices":[7,0,0,0,0],"split_type":[0,0,0,0,0],"sum_hessian":[3.9331665E0,1.4356862E0,2.4974804E0,1.2901278E0,1.2073525E0],"tree_param":{"num_deleted":"0","num_feature":"28","num_nodes":"5","size_leaf_vector":"1"}},{"base_weights":[-1.074023E-3,1.473594E-1,-7.5164065E-2,9.129344E-2,-2.1412047E-2],"categories":[],"categories_nodes":[],"categories_segments":[],"categories_sizes":[],"default_left":[0,0,0,0,0],"id":44,"left_children":[1,3,-1,-1,-1],"loss_changes":[2.1842219E-1,1.4883573E-1,0E0,0E0,0E0],"parents":[2147483647,0,0,1,1],"right_children":[2,4,-1,-1,-1],"split_conditions":[3.2E1,1.6E-1,-7.5164065E-2,9.129344E-2,-2.1412047E-2],"split_indices":[0,8,0,0,0],"split_type":[0,0,0,0,0],"sum_hessian":[3.9014642E0,2.702704E0,1.1987603E0,1.3457862E0,1.3569176E0],"tree_param":{"num_deleted":"0","num_feature":"28","num_nodes":"5","size_leaf_vector":"1"}},{"base_weights":[-1.0874297E-3,-6.6257365E-2,1.5217812E-1,-1.9801026E-2,9.513293E-2],"categories":[],"categories_nodes":[],"categories_segments":[],"categories_sizes":[],"default_left":[0,0,0,0,0],"id":45,"left_children":[1,-1,3,-1,-1],"loss_changes":[1.9792867E-1,0E0,1.4565778E-1,0E0,0E0],"parents":[2147483647,0,0,2,2],"right_children":[2,-1,4,-1,-1],"split_conditions":[1E0,-6.6257365E-2,3.1E1,-1.9801026E-2,9.513293E-2],"split_indices":[7,0,0,0,0],"split_type":[0,0,0,0,0],"sum_hessian":[3.8783588E0,1.4122671E0,2.4660916E0,1.3198836E0,1.146208E0],"tree_param":{"num_deleted":"0","num_feature":"28","num_nodes":"5","size_leaf_vector":"1"}},{"base_weights":[1.832503E-3,1.4313354E-1,-7.1010515E-2,-1.0696921E-2,9.028966E-2],"categories":[],"categories_nodes":[],"categories_segments":[],"categories_sizes":[],"default_left":[0,0,0,0,0],"id":46,"left_children":[1,3,-1,-1,-1],"loss_changes":[1.9747141E-1,1.1432824E-1,0E0,0E0,0E0],"parents":[2147483647,0,0,1,1],"right_children":[2,4,-1,-1,-1],"split_conditions":[3.2E1,1E0,-7.1010515E-2,-1.0696921E-2,9.028966E-2],"split_indices":[0,8,0,0,0],"split_type":[0,0,0,0,0],"sum_hessian":[3.8536067E0,2.6712048E0,1.182402E0,1.6153944E0,1.0558106E0],"tree_param":{"num_deleted":"0","num_feature":"28","num_nodes":"5","size_leaf_vector":"1"}},{"base_weights":[3.689858E-3,6.0946926E-2,-1.424563E-1,1.8628722E-2,-8.198322E-2],"categories":[],"categories_nodes":[],"categories_segments":[],"categories_sizes":[],"default_left":[0,0,0,0,0],"id":47,"left_children":[1,-1,3,-1,-1],"loss_changes":[1.698285E-1,0E0,1.07340105E-1,0E0,0E0],"parents":[2147483647,0,0,2,2],"right_children":[2,-1,4,-1,-1],"split_conditions":[1.6E-1,6.0946926E-2,1.6E1,1.8628722E-2,-8.198322E-2],"split_indices":[8,0,2,0,0],"split_type":[0,0,0,0,0],"sum_hessian":[3.8329833E0,1.4558651E0,2.3771179E0,1.1321794E0,1.2449386E0],"tree_param":{"num_deleted":"0","num_feature":"28","num_nodes":"5","size_leaf_vector":"1"}},{"base_weights":[2.4392721E-3,-5.805627E-2,4.6732314E-2],"categories":[],"categories_nodes":[],"categories_segments":[],"categories_sizes":[],"default_left":[0,0,0],"id":48,"left_children":[1,-1,-1],"loss_changes":[1.7465994E-1,0E0,0E0],"parents":[2147483647,0,0],"right_children":[2,-1,-1],"split_conditions":[1E0,-5.805627E-2,4.6732314E-2],"split_indices":[27,0,0],"split_type":[0,0,0],"sum_hessian":[3.809518E0,1.55727E0,2.252248E0],"tree_param":{"num_deleted":"0","num_feature":"28","num_nodes":"3","size_leaf_vector":"1"}},{"base_weights":[-3.8938352E-4,-5.4735824E-2,5.385957E-2],"categories":[],"categories_nodes":[],"categories_segments":[],"categories_sizes":[],"default_left":[0,0,0],"id":49,"left_children":[1,-1,-1],"loss_changes":[1.8661815E-1,0E0,0E0],"parents":[2147483647,0,0],"right_children":[2,-1,-1],"split_conditions":[1.8E1,-5.4735824E-2,5.385957E-2],"split_indices":[2,0,0],"split_type":[0,0,0],"sum_hessian":[3.697064E0,1.8305998E0,1.8664641E0],"tree_param":{"num_deleted":"0","num_feature":"28","num_nodes":"3","size_leaf_vector":"1"}},{"base_weights":[-1.0084442E-5,-5.4301124E-2,4.2821564E-2],"categories":[],"categories_nodes":[],"categories_segments":[],"categories_sizes":[],"default_left":[0,0,0],"id":50,"left_children":[1,-1,-1],"loss_changes":[1.4790356E-1,0E0,0E0],"parents":[2147483647,0,0],"right_children":[2,-1,-1],"split_conditions":[1E0,-5.4301124E-2,4.2821564E-2],"split_indices":[27,0,0],"split_type":[0,0,0],"sum_hessian":[3.7245917E0,1.5241296E0,2.200462E0],"tree_param":{"num_deleted":"0","num_feature":"28","num_nodes":"3","size_leaf_vector":"1"}},{"base_weights":[-2.260461E-3,5.8783926E-2,-1.4903748E-1,1.2621648E-2,-7.934414E-2],"categories":[],"categories_nodes":[],"categories_segments":[],"categories_sizes":[],"default_left":[0,0,0,0,0],"id":51,"left_children":[1,-1,3,-1,-1],"loss_changes":[1.6375425E-1,0E0,8.228293E-2,0E0,0E0],"parents":[2147483647,0,0,2,2],"right_children":[2,-1,4,-1,-1],"split_conditions":[1.6E-1,5.8783926E-2,1.6E1,1.2621648E-2,-7.934414E-2],"split_indices":[8,0,2,0,0],"split_type":[0,0,0,0,0],"sum_hessian":[3.6249795E0,1.3997589E0,2.2252204E0,1.0773253E0,1.1478952E0],"tree_param":{"num_deleted":"0","num_feature":"28","num_nodes":"5","size_leaf_vector":"1"}},{"base_weights":[-2.979989E-3,-5.2205544E-2,5.0452624E-2],"categories":[],"categories_nodes":[],"categories_segments":[],"categories_sizes":[],"default_left":[0,0,0],"id":52,"left_children":[1,-1,-1],"loss_changes":[1.6422488E-1,0E0,0E0],"parents":[2147483647,0,0],"right_children":[2,-1,-1],"split_conditions":[1.8E1,-5.2205544E-2,5.0452624E-2],"split_indices":[2,0,0],"split_type":[0,0,0],"sum_hessian":[3.6101835E0,1.7973416E0,1.8128419E0],"tree_param":{"num_deleted":"0","num_feature":"28","num_nodes":"3","size_leaf_vector":"1"}},{"base_weights":[-2.0516638E-3,-5.858017E-2,1.3977316E-1,-2.4442146E-2,9.346904E-2],"categories":[],"categories_nodes":[],"categories_segments":[],"categories_sizes":[],"default_left":[0,0,0,0,0],"id":53,"left_children":[1,-1,3,-1,-1],"loss_changes":[1.5440679E-1,0E0,1.4921209E-1,0E0,0E0],"parents":[2147483647,0,0,2,2],"right_children":[2,-1,4,-1,-1],"split_conditions":[1E0,-5.858017E-2,3.1E1,-2.4442146E-2,9.346904E-2],"split_indices":[7,0,0,0,0],"split_type":[0,0,0,0,0],"sum_hessian":[3.638717E0,1.3807828E0,2.257934E0,1.216698E0,1.0412362E0],"tree_param":{"num_deleted":"0","num_feature":"28","num_nodes":"5","size_leaf_vector":"1"}},{"base_weights":[1.5016961E-3,1.2629889E-1,-6.0560722E-2,7.79799E-2,-1.8138975E-2],"categories":[],"categories_nodes":[],"categories_segments":[],"categories_sizes":[],"default_left":[0,0,0,0,0],"id":54,"left_children":[1,3,-1,-1,-1],"loss_changes":[1.4266165E-1,1.02470204E-1,0E0,0E0,0E0],"parents":[2147483647,0,0,1,1],"right_children":[2,4,-1,-1,-1],"split_conditions":[3.2E1,1.6E-1,-6.0560722E-2,7.79799E-2,-1.8138975E-2],"split_indices":[0,8,0,0,0],"split_type":[0,0,0,0,0],"sum_hessian":[3.616444E0,2.4760215E0,1.1404227E0,1.2149212E0,1.2611002E0],"tree_param":{"num_deleted":"0","num_feature":"28","num_nodes":"5","size_leaf_vector":"1"}},{"base_weights":[1.378342E-3,-5.9166394E-2,4.5413755E-2],"categories":[],"categories_nodes":[],"categories_segments":[],"categories_sizes":[],"default_left":[0,0,0],"id":55,"left_children":[1,-1,-1],"loss_changes":[1.6701056E-1,0E0,0E0],"parents":[2147483647,0,0],"right_children":[2,-1,-1],"split_conditions":[1E0,-5.9166394E-2,4.5413755E-2],"split_indices":[27,0,0],"split_type":[0,0,0],"sum_hessian":[3.6040561E0,1.4153479E0,2.1887083E0],"tree_param":{"num_deleted":"0","num_feature":"28","num_nodes":"3","size_leaf_vector":"1"}},{"base_weights":[-1.8318819E-3,-5.3599115E-2,1.294134E-1,-1.5331305E-2,7.699976E-2],"categories":[],"categories_nodes":[],"categories_segments":[],"categories_sizes":[],"default_left":[0,0,0,0,0],"id":56,"left_children":[1,-1,3,-1,-1],"loss_changes":[1.275358E-1,0E0,8.5758805E-2,0E0,0E0],"parents":[2147483647,0,0,2,2],"right_children":[2,-1,4,-1,-1],"split_conditions":[1E0,-5.3599115E-2,3E1,-1.5331305E-2,7.699976E-2],"split_indices":[7,0,0,0,0],"split_type":[0,0,0,0,0],"sum_hessian":[3.4989994E0,1.3367066E0,2.1622927E0,1.1414529E0,1.0208399E0],"tree_param":{"num_deleted":"0","num_feature":"28","num_nodes":"5","size_leaf_vector":"1"}},{"base_weights":[9.3478954E-4,1.2406644E-1,-6.033156E-2,7.6156095E-2,-1.752021E-2],"categories":[],"categories_nodes":[],"categories_segments":[],"categories_sizes":[],"default_left":[0,0,0,0,0],"id":57,"left_children":[1,3,-1,-1,-1],"loss_changes":[1.366414E-1,9.553358E-2,0E0,0E0,0E0],"parents":[2147483647,0,0,1,1],"right_children":[2,4,-1,-1,-1],"split_conditions":[3.2E1,1.6E-1,-6.033156E-2,7.6156095E-2,-1.752021E-2],"split_indices":[0,8,0,0,0],"split_type":[0,0,0,0,0],"sum_hessian":[3.4896355E0,2.4080188E0,1.0816166E0,1.1785194E0,1.2294995E0],"tree_param":{"num_deleted":"0","num_feature":"28","num_nodes":"5","size_leaf_vector":"1"}},{"base_weights":[7.3805806E-4,-5.3681653E-2,4.0806577E-2],"categories":[],"categories_nodes":[],"categories_segments":[],"categories_sizes":[],"default_left":[0,0,0],"id":58,"left_children":[1,-1,-1],"loss_changes":[1.3320959E-1,0E0,0E0],"parents":[2147483647,0,0],"right_children":[2,-1,-1],"split_conditions":[1E0,-5.3681653E-2,4.0806577E-2],"split_indices":[27,0,0],"split_type":[0,0,0],"sum_hessian":[3.4788854E0,1.3556676E0,2.1232178E0],"tree_param":{"num_deleted":"0","num_feature":"28","num_nodes":"3","size_leaf_vector":"1"}},{"base_weights":[-2.2098615E-3,-4.6330974E-2,4.6782237E-2],"categories":[],"categories_nodes":[],"categories_segments":[],"categories_sizes":[],"default_left":[0,0,0],"id":59,"left_children":[1,-1,-1],"loss_changes":[1.2975729E-1,0E0,0E0],"parents":[2147483647,0,0],"right_children":[2,-1,-1],"split_conditions":[1.8E1,-4.6330974E-2,4.6782237E-2],"split_indices":[2,0,0],"split_type":[0,0,0],"sum_hessian":[3.3894255E0,1.7390248E0,1.6504008E0],"tree_param":{"num_deleted":"0","num_feature":"28","num_nodes":"3","size_leaf_vector":"1"}},{"base_weights":[-1.1115773E-3,-5.0357718E-2,3.761512E-2],"categories":[],"categories_nodes":[],"categories_segments":[],"categories_sizes":[],"default_left":[0,0,0],"id":60,"left_children":[1,-1,-1],"loss_changes":[1.1418804E-1,0E0,0E0],"parents":[2147483647,0,0],"right_children":[2,-1,-1],"split_conditions":[1E0,-5.0357718E-2,3.761512E-2],"split_indices":[27,0,0],"split_type":[0,0,0],"sum_hessian":[3.415789E0,1.3324031E0,2.083386E0],"tree_param":{"num_deleted":"0","num_feature":"28","num_nodes":"3","size_leaf_vector":"1"}},{"base_weights":[-3.563684E-3,5.163284E-2,-1.3020508E-1,1.4205715E-2,-7.353327E-2],"categories":[],"categories_nodes":[],"categories_segments":[],"categories_sizes":[],"default_left":[0,0,0,0,0],"id":61,"left_children":[1,-1,3,-1,-1],"loss_changes":[1.18869275E-1,0E0,7.462524E-2,0E0,0E0],"parents":[2147483647,0,0,2,2],"right_children":[2,-1,4,-1,-1],"split_conditions":[1.6E-1,5.163284E-2,1.6E1,1.4205715E-2,-7.353327E-2],"split_indices":[8,0,2,0,0],"split_type":[0,0,0,0,0],"sum_hessian":[3.335759E0,1.2469698E0,2.088789E0,1.0516447E0,1.0371444E0],"tree_param":{"num_deleted":"0","num_feature":"28","num_nodes":"5","size_leaf_vector":"1"}},{"base_weights":[-4.026639E-3,-4.8068356E-2,4.196895E-2],"categories":[],"categories_nodes":[],"categories_segments":[],"categories_sizes":[],"default_left":[0,0,0],"id":62,"left_children":[1,-1,-1],"loss_changes":[1.1960082E-1,0E0,0E0],"parents":[2147483647,0,0],"right_children":[2,-1,-1],"split_conditions":[1E0,-4.8068356E-2,4.196895E-2],"split_indices":[8,0,0],"split_type":[0,0,0],"sum_hessian":[3.323012E0,1.5392075E0,1.7838048E0],"tree_param":{"num_deleted":"0","num_feature":"28","num_nodes":"3","size_leaf_vector":"1"}},{"base_weights":[-3.9677275E-3,-4.645563E-2,4.59737E-2],"categories":[],"categories_nodes":[],"categories_segments":[],"categories_sizes":[],"default_left":[0,0,0],"id":63,"left_children":[1,-1,-1],"loss_changes":[1.2568401E-1,0E0,0E0],"parents":[2147483647,0,0],"right_children":[2,-1,-1],"split_conditions":[1.8E1,-4.645563E-2,4.59737E-2],"split_indices":[2,0,0],"split_type":[0,0,0],"sum_hessian":[3.2980232E0,1.6905501E0,1.6074733E0],"tree_param":{"num_deleted":"0","num_feature":"28","num_nodes":"3","size_leaf_vector":"1"}},{"base_weights":[-2.5501982E-3,1.0845011E-1,-5.3916793E-2,6.8830214E-2,-1.8202158E-2],"categories":[],"categories_nodes":[],"categories_segments":[],"categories_sizes":[],"default_left":[0,0,0,0,0],"id":64,"left_children":[1,3,-1,-1,-1],"loss_changes":[1.0453802E-1,8.108363E-2,0E0,0E0,0E0],"parents":[2147483647,0,0,1,1],"right_children":[2,4,-1,-1,-1],"split_conditions":[3.2E1,1.6E-1,-5.3916793E-2,6.8830214E-2,-1.8202158E-2],"split_indices":[0,8,0,0,0],"split_type":[0,0,0,0,0],"sum_hessian":[3.3245318E0,2.2824426E0,1.0420891E0,1.1227053E0,1.1597373E0],"tree_param":{"num_deleted":"0","num_feature":"28","num_nodes":"5","size_leaf_vector":"1"}},{"base_weights":[-2.1821957E-3,-5.3309E-2,3.8788795E-2],"categories":[],"categories_nodes":[],"categories_segments":[],"categories_sizes":[],"default_left":[0,0,0],"id":65,"left_children":[1,-1,-1],"loss_changes":[1.2266419E-1,0E0,0E0],"parents":[2147483647,0,0],"right_children":[2,-1,-1],"split_conditions":[1E0,-5.3309E-2,3.8788795E-2],"split_indices":[7,0,0],"split_type":[0,0,0],"sum_hessian":[3.3199577E0,1.2713122E0,2.0486455E0],"tree_param":{"num_deleted":"0","num_feature":"28","num_nodes":"3","size_leaf_vector":"1"}},{"base_weights":[-4.6606655E-3,-4.9207713E-2,3.508184E-2],"categories":[],"categories_nodes":[],"categories_segments":[],"categories_sizes":[],"default_left":[0,0,0],"id":66,"left_children":[1,-1,-1],"loss_changes":[1.0242247E-1,0E0,0E0],"parents":[2147483647,0,0],"right_children":[2,-1,-1],"split_conditions":[1E0,-4.9207713E-2,3.508184E-2],"split_indices":[27,0,0],"split_type":[0,0,0],"sum_hessian":[3.2954853E0,1.275268E0,2.0202174E0],"tree_param":{"num_deleted":"0","num_feature":"28","num_nodes":"3","size_leaf_vector":"1"}},{"base_weights":[-6.528906E-3,5.0437737E-2,-3.9739423E-2],"categories":[],"categories_nodes":[],"categories_segments":[],"categories_sizes":[],"default_left":[0,0,0],"id":67,"left_children":[1,-1,-1],"loss_changes":[1.1517287E-1,0E0,0E0],"parents":[2147483647,0,0],"right_children":[2,-1,-1],"split_conditions":[1.6E-1,5.0437737E-2,-3.9739423E-2],"split_indices":[8,0,0],"split_type":[0,0,0],"sum_hessian":[3.22373E0,1.2102616E0,2.0134685E0],"tree_param":{"num_deleted":"0","num_feature":"28","num_nodes":"3","size_leaf_vector":"1"}},{"base_weights":[-1.7567175E-3,-4.701188E-2,4.2020462E-2],"categories":[],"categories_nodes":[],"categories_segments":[],"categories_sizes":[],"default_left":[0,0,0],"id":68,"left_children":[1,-1,-1],"loss_changes":[1.1520208E-1,0E0,0E0],"parents":[2147483647,0,0],"right_children":[2,-1,-1],"split_conditions":[1E0,-4.701188E-2,4.2020462E-2],"split_indices":[8,0,0],"split_type":[0,0,0],"sum_hessian":[3.2434363E0,1.4998554E0,1.7435809E0],"tree_param":{"num_deleted":"0","num_feature":"28","num_nodes":"3","size_leaf_vector":"1"}},{"base_weights":[-2.1412477E-3,4.990294E-2,-1.2506653E-1,-1.1833404E-2,-4.448465E-2],"categories":[],"categories_nodes":[],"categories_segments":[],"categories_sizes":[],"default_left":[0,0,0,0,0],"id":69,"left_children":[1,-1,3,-1,-1],"loss_changes":[1.0819111E-1,0E0,1.3488904E-4,0E0,0E0],"parents":[2147483647,0,0,2,2],"right_children":[2,-1,4,-1,-1],"split_conditions":[1.6E-1,4.990294E-2,2.8E1,-1.1833404E-2,-4.448465E-2],"split_indices":[8,0,0,0,0],"split_type":[0,0,0,0,0],"sum_hessian":[3.2193615E0,1.2090303E0,2.0103314E0,1.0045383E0,1.0057931E0],"tree_param":{"num_deleted":"0","num_feature":"28","num_nodes":"5","size_leaf_vector":"1"}},{"base_weights":[-2.829222E-3,-4.5141824E-2,4.000309E-2],"categories":[],"categories_nodes":[],"categories_segments":[],"categories_sizes":[],"default_left":[0,0,0],"id":70,"left_children":[1,-1,-1],"loss_changes":[1.0499922E-1,0E0,0E0],"parents":[2147483647,0,0],"right_children":[2,-1,-1],"split_conditions":[1E0,-4.5141824E-2,4.000309E-2],"split_indices":[8,0,0],"split_type":[0,0,0],"sum_hessian":[3.2245443E0,1.4967266E0,1.7278177E0],"tree_param":{"num_deleted":"0","num_feature":"28","num_nodes":"3","size_leaf_vector":"1"}},{"base_weights":[-2.9655166E-3,4.915965E-2,-3.7480477E-2],"categories":[],"categories_nodes":[],"categories_segments":[],"categories_sizes":[],"default_left":[0,0,0],"id":71,"left_children":[1,-1,-1],"loss_changes":[1.059813E-1,0E0,0E0],"parents":[2147483647,0,0],"right_children":[2,-1,-1],"split_conditions":[1.6E-1,4.915965E-2,-3.7480477E-2],"split_indices":[8,0,0],"split_type":[0,0,0],"sum_hessian":[3.2022605E0,1.2073449E0,1.9949156E0],"tree_param":{"num_deleted":"0","num_feature":"28","num_nodes":"3","size_leaf_vector":"1"}},{"base_weights":[9.434985E-4,-4.88197E-2,3.7565377E-2],"categories":[],"categories_nodes":[],"categories_segments":[],"categories_sizes":[],"default_left":[0,0,0],"id":72,"left_children":[1,-1,-1],"loss_changes":[1.062114E-1,0E0,0E0],"parents":[2147483647,0,0],"right_children":[2,-1,-1],"split_conditions":[1E0,-4.88197E-2,3.7565377E-2],"split_indices":[7,0,0],"split_type":[0,0,0],"sum_hessian":[3.219832E0,1.256067E0,1.9637648E0],"tree_param":{"num_deleted":"0","num_feature":"28","num_nodes":"3","size_leaf_vector":"1"}},{"base_weights":[-1.782758E-3,4.685928E-2,-3.517994E-2],"categories":[],"categories_nodes":[],"categories_segments":[],"categories_sizes":[],"default_left":[0,0,0],"id":73,"left_children":[1,-1,-1],"loss_changes":[9.490452E-2,0E0,0E0],"parents":[2147483647,0,0],"right_children":[2,-1,-1],"split_conditions":[1.6E-1,4.685928E-2,-3.517994E-2],"split_indices":[8,0,0],"split_type":[0,0,0],"sum_hessian":[3.1979356E0,1.2016041E0,1.9963315E0],"tree_param":{"num_deleted":"0","num_feature":"28","num_nodes":"3","size_leaf_vector":"1"}},{"base_weights":[1.7403048E-3,-4.468951E-2,4.1653924E-2],"categories":[],"categories_nodes":[],"categories_segments":[],"categories_sizes":[],"default_left":[0,0,0],"id":74,"left_children":[1,-1,-1],"loss_changes":[1.0776793E-1,0E0,0E0],"parents":[2147483647,0,0],"right_children":[2,-1,-1],"split_conditions":[1E0,-4.468951E-2,4.1653924E-2],"split_indices":[8,0,0],"split_type":[0,0,0],"sum_hessian":[3.2145994E0,1.4901502E0,1.7244492E0],"tree_param":{"num_deleted":"0","num_feature":"28","num_nodes":"3","size_leaf_vector":"1"}},{"base_weights":[7.5388164E-4,4.6519548E-2,-3.3931956E-2],"categories":[],"categories_nodes":[],"categories_segments":[],"categories_sizes":[],"default_left":[0,0,0],"id":75,"left_children":[1,-1,-1],"loss_changes":[9.116192E-2,0E0,0E0],"parents":[2147483647,0,0],"right_children":[2,-1,-1],"split_conditions":[1.6E-1,4.6519548E-2,-3.3931956E-2],"split_indices":[8,0,0],"split_type":[0,0,0],"sum_hessian":[3.190284E0,1.200881E0,1.989403E0],"tree_param":{"num_deleted":"0","num_feature":"28","num_nodes":"3","size_leaf_vector":"1"}},{"base_weights":[3.7196577E-3,-4.762844E-2,3.7182443E-2],"categories":[],"categories_nodes":[],"categories_segments":[],"categories_sizes":[],"default_left":[0,0,0],"id":76,"left_children":[1,-1,-1],"loss_changes":[1.0182893E-1,0E0,0E0],"parents":[2147483647,0,0],"right_children":[2,-1,-1],"split_conditions":[1E0,-4.762844E-2,3.7182443E-2],"split_indices":[27,0,0],"split_type":[0,0,0],"sum_hessian":[3.2056293E0,1.2268955E0,1.9787339E0],"tree_param":{"num_deleted":"0","num_feature":"28","num_nodes":"3","size_leaf_vector":"1"}},{"base_weights":[2.8279834E-4,-4.451031E-2,3.462313E-2],"categories":[],"categories_nodes":[],"categories_segments":[],"categories_sizes":[],"default_left":[0,0,0],"id":77,"left_children":[1,-1,-1],"loss_changes":[8.78897E-2,0E0,0E0],"parents":[2147483647,0,0],"right_children":[2,-1,-1],"split_conditions":[1E0,-4.451031E-2,3.462313E-2],"split_indices":[7,0,0],"split_type":[0,0,0],"sum_hessian":[3.135061E0,1.2423021E0,1.892759E0],"tree_param":{"num_deleted":"0","num_feature":"28","num_nodes":"3","size_leaf_vector":"1"}},{"base_weights":[-2.0023892E-3,4.8597466E-2,-3.71122E-2],"categories":[],"categories_nodes":[],"categories_segments":[],"categories_sizes":[],"default_left":[0,0,0],"id":78,"left_children":[1,-1,-1],"loss_changes":[1.022096E-1,0E0,0E0],"parents":[2147483647,0,0],"right_children":[2,-1,-1],"split_conditions":[1.6E-1,4.8597466E-2,-3.71122E-2],"split_indices":[8,0,0],"split_type":[0,0,0],"sum_hessian":[3.1169696E0,1.1867878E0,1.9301817E0],"tree_param":{"num_deleted":"0","num_feature":"28","num_nodes":"3","size_leaf_vector":"1"}},{"base_weights":[1.6137549E-3,-4.1774876E-2,3.9461207E-2],"categories":[],"categories_nodes":[],"categories_segments":[],"categories_sizes":[],"default_left":[0,0,0],"id":79,"left_children":[1,-1,-1],"loss_changes":[9.395824E-2,0E0,0E0],"parents":[2147483647,0,0],"right_children":[2,-1,-1],"split_conditions":[1E0,-4.1774876E-2,3.9461207E-2],"split_indices":[8,0,0],"split_type":[0,0,0],"sum_hessian":[3.1330948E0,1.4688189E0,1.6642759E0],"tree_param":{"num_deleted":"0","num_feature":"28","num_nodes":"3","size_leaf_vector":"1"}},{"base_weights":[8.01243E-4,4.753788E-2,-3.5138417E-2],"categories":[],"categories_nodes":[],"categories_segments":[],"categories_sizes":[],"default_left":[0,0,0],"id":80,"left_children":[1,-1,-1],"loss_changes":[9.50059E-2,0E0,0E0],"parents":[2147483647,0,0],"right_children":[2,-1,-1],"split_conditions":[1.6E-1,4.753788E-2,-3.5138417E-2],"split_indices":[8,0,0],"split_type":[0,0,0],"sum_hessian":[3.1116407E0,1.1844628E0,1.927178E0],"tree_param":{"num_deleted":"0","num_feature":"28","num_nodes":"3","size_leaf_vector":"1"}},{"base_weights":[3.7750953E-3,-3.986512E-2,3.8707644E-2],"categories":[],"categories_nodes":[],"categories_segments":[],"categories_sizes":[],"default_left":[0,0,0],"id":81,"left_children":[1,-1,-1],"loss_changes":[8.7776236E-2,0E0,0E0],"parents":[2147483647,0,0],"right_children":[2,-1,-1],"split_conditions":[1E0,-3.986512E-2,3.8707644E-2],"split_indices":[8,0,0],"split_type":[0,0,0],"sum_hessian":[3.1264606E0,1.4659928E0,1.6604677E0],"tree_param":{"num_deleted":"0","num_feature":"28","num_nodes":"3","size_leaf_vector":"1"}},{"base_weights":[2.5871194E-3,4.634513E-2,-3.3506647E-2],"categories":[],"categories_nodes":[],"categories_segments":[],"categories_sizes":[],"default_left":[0,0,0],"id":82,"left_children":[1,-1,-1],"loss_changes":[8.850523E-2,0E0,0E0],"parents":[2147483647,0,0],"right_children":[2,-1,-1],"split_conditions":[1.6E-1,4.634513E-2,-3.3506647E-2],"split_indices":[8,0,0],"split_type":[0,0,0],"sum_hessian":[3.104769E0,1.1819121E0,1.922857E0],"tree_param":{"num_deleted":"0","num_feature":"28","num_nodes":"3","size_leaf_vector":"1"}},{"base_weights":[5.115944E-3,-4.414631E-2,3.6525574E-2],"categories":[],"categories_nodes":[],"categories_segments":[],"categories_sizes":[],"default_left":[0,0,0],"id":83,"left_children":[1,-1,-1],"loss_changes":[9.106363E-2,0E0,0E0],"parents":[2147483647,0,0],"right_children":[2,-1,-1],"split_conditions":[1E0,-4.414631E-2,3.6525574E-2],"split_indices":[7,0,0],"split_type":[0,0,0],"sum_hessian":[3.11861E0,1.2391815E0,1.8794283E0],"tree_param":{"num_deleted":"0","num_feature":"28","num_nodes":"3","size_leaf_vector":"1"}},{"base_weights":[1.9413198E-3,4.3910466E-2,-3.1923193E-2],"categories":[],"categories_nodes":[],"categories_segments":[],"categories_sizes":[],"default_left":[0,0,0],"id":84,"left_children":[1,-1,-1],"loss_changes":[7.97218E-2,0E0,0E0],"parents":[2147483647,0,0],"right_children":[2,-1,-1],"split_conditions":[1.6E-1,4.3910466E-2,-3.1923193E-2],"split_indices":[8,0,0],"split_type":[0,0,0],"sum_hessian":[3.0991066E0,1.1780177E0,1.9210888E0],"tree_param":{"num_deleted":"0","num_feature":"28","num_nodes":"3","size_leaf_vector":"1"}},{"base_weights":[4.438545E-3,-4.551127E-2,3.6196847E-2],"categories":[],"categories_nodes":[],"categories_segments":[],"categories_sizes":[],"default_left":[0,0,0],"id":85,"left_children":[1,-1,-1],"loss_changes":[9.293475E-2,0E0,0E0],"parents":[2147483647,0,0],"right_children":[2,-1,-1],"split_conditions":[1E0,-4.551127E-2,3.6196847E-2],"split_indices":[27,0,0],"split_type":[0,0,0],"sum_hessian":[3.1126688E0,1.197899E0,1.9147696E0],"tree_param":{"num_deleted":"0","num_feature":"28","num_nodes":"3","size_leaf_vector":"1"}},{"base_weights":[1.0050823E-3,-3.672047E-2,3.943134E-2],"categories":[],"categories_nodes":[],"categories_segments":[],"categories_sizes":[],"default_left":[0,0,0],"id":86,"left_children":[1,-1,-1],"loss_changes":[8.125088E-2,0E0,0E0],"parents":[2147483647,0,0],"right_children":[2,-1,-1],"split_conditions":[1.8E1,-3.672047E-2,3.943134E-2],"split_indices":[2,0,0],"split_type":[0,0,0],"sum_hessian":[3.0483112E0,1.5979817E0,1.4503295E0],"tree_param":{"num_deleted":"0","num_feature":"28","num_nodes":"3","size_leaf_vector":"1"}},{"base_weights":[1.558212E-3,-3.881839E-2,3.706832E-2],"categories":[],"categories_nodes":[],"categories_segments":[],"categories_sizes":[],"default_left":[0,0,0],"id":87,"left_children":[1,-1,-1],"loss_changes":[8.095374E-2,0E0,0E0],"parents":[2147483647,0,0],"right_children":[2,-1,-1],"split_conditions":[1E0,-3.881839E-2,3.706832E-2],"split_indices":[8,0,0],"split_type":[0,0,0],"sum_hessian":[3.0662925E0,1.4496794E0,1.616613E0],"tree_param":{"num_deleted":"0","num_feature":"28","num_nodes":"3","size_leaf_vector":"1"}},{"base_weights":[8.5223635E-4,4.4849012E-2,-3.340864E-2],"categories":[],"categories_nodes":[],"categories_segments":[],"categories_sizes":[],"default_left":[0,0,0],"id":88,"left_children":[1,-1,-1],"loss_changes":[8.414744E-2,0E0,0E0],"parents":[2147483647,0,0],"right_children":[2,-1,-1],"split_conditions":[1.6E-1,4.4849012E-2,-3.340864E-2],"split_indices":[8,0,0],"split_type":[0,0,0],"sum_hessian":[3.0467014E0,1.1676865E0,1.879015E0],"tree_param":{"num_deleted":"0","num_feature":"28","num_nodes":"3","size_leaf_vector":"1"}},{"base_weights":[3.5943047E-3,-4.3533497E-2,3.450443E-2],"categories":[],"categories_nodes":[],"categories_segments":[],"categories_sizes":[],"default_left":[0,0,0],"id":89,"left_children":[1,-1,-1],"loss_changes":[8.395793E-2,0E0,0E0],"parents":[2147483647,0,0],"right_children":[2,-1,-1],"split_conditions":[1E0,-4.3533497E-2,3.450443E-2],"split_indices":[27,0,0],"split_type":[0,0,0],"sum_hessian":[3.0598962E0,1.1811327E0,1.8787634E0],"tree_param":{"num_deleted":"0","num_feature":"28","num_nodes":"3","size_leaf_vector":"1"}},{"base_weights":[4.3155416E-4,4.2038113E-2,-3.141686E-2],"categories":[],"categories_nodes":[],"categories_segments":[],"categories_sizes":[],"default_left":[0,0,0],"id":90,"left_children":[1,-1,-1],"loss_changes":[7.344269E-2,0E0,0E0],"parents":[2147483647,0,0],"right_children":[2,-1,-1],"split_conditions":[1.6E-1,4.2038113E-2,-3.141686E-2],"split_indices":[8,0,0],"split_type":[0,0,0],"sum_hessian":[3.0006673E0,1.1458482E0,1.854819E0],"tree_param":{"num_deleted":"0","num_feature":"28","num_nodes":"3","size_leaf_vector":"1"}},{"base_weights":[3.1048243E-3,-4.4122763E-2,3.603596E-2],"categories":[],"categories_nodes":[],"categories_segments":[],"categories_sizes":[],"default_left":[0,0,0],"id":91,"left_children":[1,-1,-1],"loss_changes":[8.8216685E-2,0E0,0E0],"parents":[2147483647,0,0],"right_children":[2,-1,-1],"split_conditions":[1E0,-4.4122763E-2,3.603596E-2],"split_indices":[7,0,0],"split_type":[0,0,0],"sum_hessian":[3.0145872E0,1.2076958E0,1.8068914E0],"tree_param":{"num_deleted":"0","num_feature":"28","num_nodes":"3","size_leaf_vector":"1"}},{"base_weights":[3.54111E-4,-3.6380053E-2,3.4724038E-2],"categories":[],"categories_nodes":[],"categories_segments":[],"categories_sizes":[],"default_left":[0,0,0],"id":92,"left_children":[1,-1,-1],"loss_changes":[7.011416E-2,0E0,0E0],"parents":[2147483647,0,0],"right_children":[2,-1,-1],"split_conditions":[1E0,-3.6380053E-2,3.4724038E-2],"split_indices":[8,0,0],"split_type":[0,0,0],"sum_hessian":[2.995813E0,1.4337603E0,1.5620526E0],"tree_param":{"num_deleted":"0","num_feature":"28","num_nodes":"3","size_leaf_vector":"1"}},{"base_weights":[-3.4281036E-6,4.587591E-2,-3.502E-2],"categories":[],"categories_nodes":[],"categories_segments":[],"categories_sizes":[],"default_left":[0,0,0],"id":93,"left_children":[1,-1,-1],"loss_changes":[8.887753E-2,0E0,0E0],"parents":[2147483647,0,0],"right_children":[2,-1,-1],"split_conditions":[1.6E-1,4.587591E-2,-3.502E-2],"split_indices":[8,0,0],"split_type":[0,0,0],"sum_hessian":[2.9789307E0,1.1553384E0,1.8235924E0],"tree_param":{"num_deleted":"0","num_feature":"28","num_nodes":"3","size_leaf_vector":"1"}},{"base_weights":[2.913136E-3,-3.942172E-2,3.1399246E-2],"categories":[],"categories_nodes":[],"categories_segments":[],"categories_sizes":[],"default_left":[0,0,0],"id":94,"left_children":[1,-1,-1],"loss_changes":[6.8309285E-2,0E0,0E0],"parents":[2147483647,0,0],"right_children":[2,-1,-1],"split_conditions":[1E0,-3.942172E-2,3.1399246E-2],"split_indices":[27,0,0],"split_type":[0,0,0],"sum_hessian":[2.9917684E0,1.1638958E0,1.8278725E0],"tree_param":{"num_deleted":"0","num_feature":"28","num_nodes":"3","size_leaf_vector":"1"}},{"base_weights":[1.4107737E-4,4.260256E-2,-3.2348294E-2],"categories":[],"categories_nodes":[],"categories_segments":[],"categories_sizes":[],"default_left":[0,0,0],"id":95,"left_children":[1,-1,-1],"loss_changes":[7.567413E-2,0E0,0E0],"parents":[2147483647,0,0],"right_children":[2,-1,-1],"split_conditions":[1.6E-1,4.260256E-2,-3.2348294E-2],"split_indices":[8,0,0],"split_type":[0,0,0],"sum_hessian":[2.9407659E0,1.1346271E0,1.8061386E0],"tree_param":{"num_deleted":"0","num_feature":"28","num_nodes":"3","size_leaf_vector":"1"}},{"base_weights":[2.8575854E-3,-3.7916884E-2,3.7192106E-2],"categories":[],"categories_nodes":[],"categories_segments":[],"categories_sizes":[],"default_left":[0,0,0],"id":96,"left_children":[1,-1,-1],"loss_changes":[7.756802E-2,0E0,0E0],"parents":[2147483647,0,0],"right_children":[2,-1,-1],"split_conditions":[1E0,-3.7916884E-2,3.7192106E-2],"split_indices":[8,0,0],"split_type":[0,0,0],"sum_hessian":[2.9542205E0,1.4080745E0,1.5461459E0],"tree_param":{"num_deleted":"0","num_feature":"28","num_nodes":"3","size_leaf_vector":"1"}},{"base_weights":[2.0106377E-3,4.1882753E-2,-3.1054445E-2],"categories":[],"categories_nodes":[],"categories_segments":[],"categories_sizes":[],"default_left":[0,0,0],"id":97,"left_children":[1,-1,-1],"loss_changes":[7.157294E-2,0E0,0E0],"parents":[2147483647,0,0],"right_children":[2,-1,-1],"split_conditions":[1.6E-1,4.1882753E-2,-3.1054445E-2],"split_indices":[8,0,0],"split_type":[0,0,0],"sum_hessian":[2.9339354E0,1.1332536E0,1.8006817E0],"tree_param":{"num_deleted":"0","num_feature":"28","num_nodes":"3","size_leaf_vector":"1"}},{"base_weights":[4.3016393E-3,-4.174027E-2,3.5160508E-2],"categories":[],"categories_nodes":[],"categories_segments":[],"categories_sizes":[],"default_left":[0,0,0],"id":98,"left_children":[1,-1,-1],"loss_changes":[8.02145E-2,0E0,0E0],"parents":[2147483647,0,0],"right_children":[2,-1,-1],"split_conditions":[1E0,-4.174027E-2,3.5160508E-2],"split_indices":[7,0,0],"split_type":[0,0,0],"sum_hessian":[2.946404E0,1.1953651E0,1.751039E0],"tree_param":{"num_deleted":"0","num_feature":"28","num_nodes":"3","size_leaf_vector":"1"}},{"base_weights":[1.5248806E-3,3.9830063E-2,-2.9710555E-2],"categories":[],"categories_nodes":[],"categories_segments":[],"categories_sizes":[],"default_left":[0,0,0],"id":99,"left_children":[1,-1,-1],"loss_changes":[6.500997E-2,0E0,0E0],"parents":[2147483647,0,0],"right_children":[2,-1,-1],"split_conditions":[1.6E-1,3.9830063E-2,-2.9710555E-2],"split_indices":[8,0,0],"split_type":[0,0,0],"sum_hessian":[2.9295757E0,1.1319637E0,1.797612E0],"tree_param":{"num_deleted":"0","num_feature":"28","num_nodes":"3","size_leaf_vector":"1"}}]},"name":"gbtree"},"learner_model_param":{"base_score":"2.9755652E-1","boost_from_average":"1","num_class":"0","num_feature":"28","num_target":"1"},"objective":{"name":"binary:logistic","reg_loss_param":{"scale_pos_weight":"1"}}},"version":[2,0,3]}