{"learner":{"attributes":{"scikit_learn":"{\"_estimator_type\": \"classifier\"}"},"feature_names":["Number of sexual partners","Num of pregnancies","Smokes","Smokes (years)","Smokes (packs/year)","Hormonal Contraceptives","Hormonal Contraceptives (years)","IUD","IUD (years)","STDs","STDs (number)","STDs:condylomatosis","STDs:vaginal condylomatosis","STDs:vulvo-perineal condylomatosis","STDs:syphilis","STDs:pelvic inflammatory disease","STDs:genital herpes","STDs:molluscum contagiosum","STDs:HIV","STDs:Hepatitis B","STDs:HPV","STDs: Number of diagnosis","Dx:Cancer","Dx:CIN","Dx:HPV","Dx","age_group","fsi_group"],"feature_types":["float","float","float","float","float","float","float","float","float","float","float","float","float","float","float","float","float","float","float","float","float","float","float","float","float","float","float","float"],"gradient_booster":{"model":{"gbtree_model_param":{"num_parallel_tree":"1","num_trees":"10"},"iteration_indptr":[0,1,2,3,4,5,6,7,8,9,10],"tree_info":[0,0,0,0,0,0,0,0,0,0],"trees":[{"base_weights":[8.42681E-7,-1.6633439E0,2.0520854E-1,-1.7796586E0,6.723868E-2,3.75908E-1,-1.4313592E0,-7.343213E-1,-2.72443E-1,7.513811E-1,2.3125638E-1,-7.140856E-1,-4.7045776E-1,-5.773243E-1,4.928979E-1,5.479138E-1,-5.8893746E-1,4.340203E-3,-5.769554E-1,7.699207E-1,2.2652267E-2],"categories":[],"categories_nodes":[],"categories_segments":[],"categories_sizes":[],"default_left":[0,0,0,0,0,0,0,0,0,0,0,0,0,0,0,0,0,0,0,0,0],"id":0,"left_children":[1,3,5,7,-1,9,11,-1,-1,-1,13,-1,15,17,19,-1,-1,-1,-1,-1,-1],"loss_changes":[9.5561676E1,6.8488693E0,7.016076E1,5.3808594E-1,0E0,4.8788635E1,7.2346992E0,0E0,0E0,0E0,4.42307E1,0E0,1.630412E1,2.6089128E1,9.826871E1,0E0,0E0,0E0,0E0,0E0,0E0],"parents":[2147483647,0,0,1,1,2,2,3,3,5,5,6,6,10,10,12,12,13,13,14,14],"right_children":[2,4,6,8,-1,10,12,-1,-1,-1,14,-1,16,18,20,-1,-1,-1,-1,-1,-1],"split_conditions":[-1.4333614E0,5.5902693E-3,1.5417564E0,1.4709654E0,6.723868E-2,-5.60325E-1,1.6236945E0,-7.343213E-1,-2.72443E-1,7.513811E-1,-5.601897E-1,-7.140856E-1,2.7369795E0,-1.2519003E-1,1.4627121E-1,5.479138E-1,-5.8893746E-1,4.340203E-3,-5.769554E-1,7.699207E-1,2.2652267E-2],"split_indices":[26,1,27,3,0,26,27,0,0,0,26,0,27,1,26,0,0,0,0,0,0],"split_type":[0,0,0,0,0,0,0,0,0,0,0,0,0,0,0,0,0,0,0,0,0],"sum_hessian":[2.7796762E2,2.9746534E1,2.4822108E2,2.7996738E1,1.7497962E0,2.2547374E2,2.274735E1,2.5996971E1,1.9997671E0,1.8747816E1,2.0672592E2,1.59981365E1,6.7492137E0,5.024415E1,1.5648177E2,2.249738E0,4.499476E0,3.0496449E1,1.97477E1,3.574584E1,1.2073594E2],"tree_param":{"num_deleted":"0","num_feature":"28","num_nodes":"21","size_leaf_vector":"1"}},{"base_weights":[-4.8883585E-4,-3.8507292E-1,4.3209934E-1,-7.3958784E-1,9.3898964E-1,6.4149165E-1,1.21765934E-1,-8.8876903E-1,1.0846477E0,1.149316E0,-4.947513E-1,3.2329568E-1,-1.0831122E0,-1.2234173E0,-4.514646E-1,6.204553E-1,-3.780304E-2,-6.103889E-1,1.363292E0,-3.2967454E-1,8.453264E-1,2.5295606E-1,-7.1426505E-1,-3.2153642E-1,-6.563316E-1,5.259236E-1,-2.889641E-1,4.1506195E-1,-4.5439625E-1,2.55828E-2,-3.7524775E-1,1.2871264E-1,6.3373274E-1,1.12847686E-1,-5.519866E-1,6.795762E-1,1.4191346E-1,-3.6822936E-1,4.6719414E-1],"categories":[],"categories_nodes":[],"categories_segments":[],"categories_sizes":[],"default_left":[0,0,0,0,0,0,0,0,0,0,0,0,0,0,0,0,0,0,0,0,0,0,0,0,0,0,0,0,0,0,0,0,0,0,0,0,0,0,0],"id":1,"left_children":[1,3,5,7,9,-1,11,13,15,17,-1,19,21,23,25,-1,27,29,31,33,35,37,-1,-1,-1,-1,-1,-1,-1,-1,-1,-1,-1,-1,-1,-1,-1,-1,-1],"loss_changes":[4.4172768E1,6.667118E1,4.523936E1,3.1288612E1,1.5208429E1,0E0,2.4601456E1,1.4602333E1,4.705141E0,1.1370899E1,0E0,2.9706993E1,1.4100885E1,8.852684E0,2.3192106E1,0E0,5.408676E0,8.832679E-1,5.306278E0,2.5497726E1,1.9604248E1,7.39689E0,0E0,0E0,0E0,0E0,0E0,0E0,0E0,0E0,0E0,0E0,0E0,0E0,0E0,0E0,0E0,0E0,0E0],"parents":[2147483647,0,0,1,1,2,2,3,3,4,4,6,6,7,7,8,8,9,9,11,11,12,12,13,13,14,14,16,16,17,17,18,18,19,19,20,20,21,21],"right_children":[2,4,6,8,10,-1,12,14,16,18,-1,20,22,24,26,-1,28,30,32,34,36,38,-1,-1,-1,-1,-1,-1,-1,-1,-1,-1,-1,-1,-1,-1,-1,-1,-1],"split_conditions":[5.5902693E-3,-3.100056E-1,7.093563E-1,7.107902E-1,6.374204E-1,6.4149165E-1,1.6627738E0,-2.2235857E-1,6.149189E0,-1.4333614E0,-4.947513E-1,7.2330165E-1,-5.362144E-1,-2.2350164E-1,6.0280347E-1,6.204553E-1,-5.206502E-1,-1.3457439E0,-1.3573458E0,4.9761978E-1,1.251465E0,-3.1964585E-1,-7.1426505E-1,-3.2153642E-1,-6.563316E-1,5.259236E-1,-2.889641E-1,4.1506195E-1,-4.5439625E-1,2.55828E-2,-3.7524775E-1,1.2871264E-1,6.3373274E-1,1.12847686E-1,-5.519866E-1,6.795762E-1,1.4191346E-1,-3.6822936E-1,4.6719414E-1],"split_indices":[1,21,1,25,6,0,1,0,25,26,0,1,5,0,0,0,26,0,5,0,1,2,0,0,0,0,0,0,0,0,0,0,0,0,0,0,0,0,0],"split_type":[0,0,0,0,0,0,0,0,0,0,0,0,0,0,0,0,0,0,0,0,0,0,0,0,0,0,0,0,0,0,0,0,0,0,0,0,0,0,0],"sum_hessian":[2.6351462E2,1.3955544E2,1.239592E2,1.1042957E2,2.9125858E1,2.5085161E1,9.887403E1,1.0255564E2,7.8739295E0,2.6988823E1,2.1370356E0,8.533282E1,1.3541218E1,5.707853E1,4.547711E1,5.292461E0,2.5814688E0,2.7251356E0,2.4263687E1,3.8075466E1,4.725735E1,4.8871236E0,8.654094E0,2.9924562E1,2.7153967E1,5.535959E0,3.9941154E1,1.33208E0,1.2493887E0,1.1544862E0,1.5706493E0,4.6778827E0,1.9585804E1,2.4522518E1,1.3552948E1,1.6347313E1,3.0910036E1,2.1384685E0,2.7486553E0],"tree_param":{"num_deleted":"0","num_feature":"28","num_nodes":"39","size_leaf_vector":"1"}},{"base_weights":[6.309979E-3,-1.0082421E0,1.1771596E-1,-1.0791739E0,-1.7250368E-2,2.0964476E-1,-8.3411777E-1,-4.5060974E-1,-1.4849107E-1,-1.1564952E0,2.7275893E-1,-1.9295631E-1,-5.0637764E-1,-5.5882066E-1,-4.917312E-1,5.9714395E-1,5.342366E-2,-6.630159E-1,4.5065856E-1,1.4781557E-1,-4.2599973E-1,-4.0407255E-2,6.246446E-1,2.8779367E-1,-1.15105644E-1,-4.3670496E-1,-1.3411291E-2],"categories":[],"categories_nodes":[],"categories_segments":[],"categories_sizes":[],"default_left":[0,0,0,0,0,0,0,0,0,0,0,0,0,0,0,0,0,0,0,0,0,0,0,0,0,0,0],"id":2,"left_children":[1,3,5,7,-1,9,11,-1,-1,13,15,17,-1,-1,19,21,23,25,-1,-1,-1,-1,-1,-1,-1,-1,-1],"loss_changes":[2.7247173E1,1.5863495E0,1.9176987E1,3.25243E-1,0E0,1.7459738E1,5.106945E0,0E0,0E0,7.4764824E-1,1.3548036E1,6.3037047E0,0E0,0E0,2.3324435E0,5.1936394E1,2.6334038E1,1.9160166E0,0E0,0E0,0E0,0E0,0E0,0E0,0E0,0E0,0E0],"parents":[2147483647,0,0,1,1,2,2,3,3,5,5,6,6,9,9,10,10,11,11,14,14,15,15,16,16,17,17],"right_children":[2,4,6,8,-1,10,12,-1,-1,14,16,18,-1,-1,20,22,24,26,-1,-1,-1,-1,-1,-1,-1,-1,-1],"split_conditions":[-1.4333614E0,5.5902693E-3,1.5417564E0,1.4709654E0,-1.7250368E-2,-2.1088474E0,-5.649372E-1,-4.5060974E-1,-1.4849107E-1,7.2330165E-1,7.345994E-1,-1.3457439E0,-5.0637764E-1,-5.5882066E-1,1.8217877E-1,-1.3573458E0,-2.2350164E-1,-6.525928E-1,4.5065856E-1,1.4781557E-1,-4.2599973E-1,-4.0407255E-2,6.246446E-1,2.8779367E-1,-1.15105644E-1,-4.3670496E-1,-1.3411291E-2],"split_indices":[26,1,27,3,0,27,0,0,0,1,5,0,0,0,26,5,0,6,0,0,0,0,0,0,0,0,0],"split_type":[0,0,0,0,0,0,0,0,0,0,0,0,0,0,0,0,0,0,0,0,0,0,0,0,0,0,0],"sum_hessian":[2.3901738E2,2.2852652E1,2.1616472E2,2.1177984E1,1.6746676E0,1.978372E2,1.8327518E1,1.9296124E1,1.8818611E0,7.971253E0,1.8986595E2,7.9582343E0,1.0369285E1,5.0443077E0,2.9269452E0,7.589654E1,1.1396941E2,6.2348604E0,1.7233739E0,1.311679E0,1.6152662E0,4.4545815E1,3.1350723E1,3.8229572E1,7.573984E1,3.2719533E0,2.962907E0],"tree_param":{"num_deleted":"0","num_feature":"28","num_nodes":"27","size_leaf_vector":"1"}},{"base_weights":[2.59558E-4,-5.309803E-1,1.7240047E-1,-7.194418E-1,7.32779E-1,5.896077E-1,-2.2700864E-3,-8.697617E-1,4.42727E-1,3.9849082E-1,-1.7293666E-1,-6.912594E-1,2.654243E-1,-1.0907472E0,-1.6222839E-1,-8.0332947E-1,6.522335E-1,5.105083E-1,4.2139445E-2,-2.6120272E-1,-5.155043E-1,2.8497216E-1,-5.305305E-1,-3.7518486E-1,-5.5538762E-2,3.7778515E-1,7.239617E-3,-4.2370367E-1,7.177857E-2],"categories":[],"categories_nodes":[],"categories_segments":[],"categories_sizes":[],"default_left":[0,0,0,0,0,0,0,0,0,0,0,0,0,0,0,0,0,0,0,0,0,0,0,0,0,0,0,0,0],"id":3,"left_children":[1,3,5,7,9,-1,11,13,-1,-1,-1,15,17,19,21,23,25,-1,27,-1,-1,-1,-1,-1,-1,-1,-1,-1,-1],"loss_changes":[2.039181E1,1.3524775E1,3.829303E1,1.4138449E1,2.7566342E0,0E0,2.7754498E1,6.8441696E0,0E0,0E0,0E0,6.8636475E0,2.4408375E1,2.1092262E0,1.3022692E1,3.3866692E0,6.859485E-1,0E0,1.3771381E1,0E0,0E0,0E0,0E0,0E0,0E0,0E0,0E0,0E0,0E0],"parents":[2147483647,0,0,1,1,2,2,3,3,4,4,6,6,7,7,11,11,12,12,13,13,14,14,15,15,16,16,18,18],"right_children":[2,4,6,8,10,-1,12,14,-1,-1,-1,16,18,20,22,24,26,-1,28,-1,-1,-1,-1,-1,-1,-1,-1,-1,-1],"split_conditions":[-1.0441303E0,-2.2488593E-1,-2.3439834E-2,1.9174063E0,-3.4088066E-1,5.896077E-1,5.5902693E-3,6.096541E-1,4.42727E-1,3.9849082E-1,-1.7293666E-1,1.6236945E0,7.093563E-1,-1.0185906E0,7.345994E-1,-3.1964585E-1,2.6540601E0,5.105083E-1,-1.3457439E0,-2.6120272E-1,-5.155043E-1,2.8497216E-1,-5.305305E-1,-3.7518486E-1,-5.5538762E-2,3.7778515E-1,7.239617E-3,-4.2370367E-1,7.177857E-2],"split_indices":[1,11,1,23,6,0,1,0,0,0,0,27,1,26,5,2,27,0,0,0,0,0,0,0,0,0,0,0,0],"split_type":[0,0,0,0,0,0,0,0,0,0,0,0,0,0,0,0,0,0,0,0,0,0,0,0,0,0,0,0,0],"sum_hessian":[2.2098676E2,5.357272E1,1.6741403E2,4.6995155E1,6.577565E0,1.8927828E1,1.484862E2,4.3905064E1,3.0900912E0,5.482796E0,1.094769E0,4.110591E1,1.0738029E2,3.3043037E1,1.0862027E1,3.8312096E1,2.7938178E0,1.8574528E1,8.8805756E1,1.1630266E1,2.1412771E1,6.423587E0,4.4384403E0,3.151515E1,6.796944E0,1.577488E0,1.2163299E0,9.099578E0,7.970618E1],"tree_param":{"num_deleted":"0","num_feature":"28","num_nodes":"29","size_leaf_vector":"1"}},{"base_weights":[5.87129E-3,-1.0376981E0,7.1603805E-2,-4.6138316E-1,-3.748618E-1,9.059414E-3,9.9929756E-1,-2.7073473E-1,3.2318797E-2,4.9202868E-1,-4.0051218E-2,4.9228808E-1,-2.421377E-1,-1.0200687E-1,8.584943E-1,-1.7446255E-2,-5.27328E-1,-1.6857425E-2,5.2828854E-1],"categories":[],"categories_nodes":[],"categories_segments":[],"categories_sizes":[],"default_left":[0,0,0,0,0,0,0,0,0,0,0,0,0,0,0,0,0,0,0],"id":4,"left_children":[1,3,5,-1,7,9,11,-1,-1,-1,13,-1,-1,15,17,-1,-1,-1,-1],"loss_changes":[1.3802481E1,4.824915E-1,1.0969076E1,0E0,5.024558E-1,1.0738864E1,5.179413E0,0E0,0E0,0E0,9.681767E0,0E0,0E0,1.1456434E1,4.727688E0,0E0,0E0,0E0,0E0],"parents":[2147483647,0,0,1,1,2,2,4,4,5,5,6,6,10,10,13,13,14,14],"right_children":[2,4,6,-1,8,10,12,-1,-1,-1,14,-1,-1,16,18,-1,-1,-1,-1],"split_conditions":[-2.1088474E0,9.2517304E-1,6.359049E0,-4.6138316E-1,5.5902693E-3,-5.4911273E-3,5.05214E-1,-2.7073473E-1,3.2318797E-2,4.9202868E-1,1.6658762E0,4.9228808E-1,-2.421377E-1,1.598317E0,-3.1580064E-1,-1.7446255E-2,-5.27328E-1,-1.6857425E-2,5.2828854E-1],"split_indices":[27,4,24,0,1,27,0,0,0,0,26,0,0,1,7,0,0,0,0],"split_type":[0,0,0,0,0,0,0,0,0,0,0,0,0,0,0,0,0,0,0],"sum_hessian":[1.9912956E2,1.0923375E1,1.8820619E2,8.669179E0,2.2541962E0,1.772649E2,1.0941297E1,1.0637941E0,1.1904019E0,5.924332E0,1.7134056E2,9.76588E0,1.1754168E0,1.611178E2,1.0222766E1,1.5472577E2,6.3920217E0,3.7753725E0,6.4473934E0],"tree_param":{"num_deleted":"0","num_feature":"28","num_nodes":"19","size_leaf_vector":"1"}},{"base_weights":[5.7019494E-3,-4.4086897E-1,1.0348413E-1,-1.030972E0,2.0071256E-3,5.423843E-1,-5.5930547E-2,-4.994751E-1,1.5252286E-1,-4.9498835E-1,3.8041887E-1,-6.184029E-1,1.6385919E-1,-1.7046289E-1,2.463255E-1,-7.142342E-1,1.9778603E-1,6.9953877E-1,-4.2979455E-1,-5.284705E-2,-9.146434E-1,5.3065723E-1,-1.953094E-1,-3.3532184E-1,1.8026931E-2,4.5456558E-1,1.2799911E-1,2.0243855E-2,-2.7691337E-1,-2.8610492E-1,4.6481654E-1,-4.3132177E-1,1.8697044E-2,-2.7199438E-1,8.7699294E-2],"categories":[],"categories_nodes":[],"categories_segments":[],"categories_sizes":[],"default_left":[0,0,0,0,0,0,0,0,0,0,0,0,0,0,0,0,0,0,0,0,0,0,0,0,0,0,0,0,0,0,0,0,0,0,0],"id":5,"left_children":[1,3,5,7,9,-1,11,-1,13,15,17,19,21,-1,-1,23,-1,25,27,29,31,-1,33,-1,-1,-1,-1,-1,-1,-1,-1,-1,-1,-1,-1],"loss_changes":[8.418184E0,9.052888E0,3.1643778E1,4.016775E0,4.0967617E0,0E0,1.7559107E1,0E0,1.1199392E0,2.3962455E0,3.497447E0,6.6342144E0,4.2995186E1,0E0,0E0,8.026233E-1,0E0,1.1702547E0,5.537115E-1,1.2719163E1,4.1592197E0,0E0,1.6032635E1,0E0,0E0,0E0,0E0,0E0,0E0,0E0,0E0,0E0,0E0,0E0,0E0],"parents":[2147483647,0,0,1,1,2,2,3,3,4,4,6,6,8,8,9,9,10,10,11,11,12,12,15,15,17,17,18,18,19,19,20,20,22,22],"right_children":[2,4,6,8,10,-1,12,-1,14,16,18,20,22,-1,-1,24,-1,26,28,30,32,-1,34,-1,-1,-1,-1,-1,-1,-1,-1,-1,-1,-1,-1],"split_conditions":[-1.3457439E0,-6.525928E-1,-2.2350164E-1,-3.2726225E-1,-5.601897E-1,5.423843E-1,-2.2235857E-1,-4.994751E-1,-1.3573458E0,-3.100056E-1,1.3512833E0,7.361117E-1,6.0280347E-1,-1.7046289E-1,2.463255E-1,1.4027905E0,1.9778603E-1,-5.831664E-2,2.355817E-1,-1.3573458E0,1.2263613E0,5.3065723E-1,6.096541E-1,-3.3532184E-1,1.8026931E-2,4.5456558E-1,1.2799911E-1,2.0243855E-2,-2.7691337E-1,-2.8610492E-1,4.6481654E-1,-4.3132177E-1,1.8697044E-2,-2.7199438E-1,8.7699294E-2],"split_indices":[0,6,0,9,26,0,0,0,5,21,6,5,0,0,0,6,0,6,26,5,26,0,0,0,0,0,0,0,0,0,0,0,0,0,0],"split_type":[0,0,0,0,0,0,0,0,0,0,0,0,0,0,0,0,0,0,0,0,0,0,0,0,0,0,0,0,0,0,0,0,0,0,0],"sum_hessian":[1.9073799E2,3.363201E1,1.5710597E2,1.3849958E1,1.9782055E1,1.689114E1,1.4021483E2,1.1651469E1,2.198489E0,8.418008E0,1.1364046E1,3.8886158E1,1.01328674E2,1.0131506E0,1.1853385E0,7.1187654E0,1.2992426E0,8.250865E0,3.1131806E0,1.3772096E1,2.5114061E1,2.3277077E1,7.80516E1,6.029495E0,1.0892707E0,2.9086504E0,5.342215E0,1.385199E0,1.7279818E0,9.178689E0,4.5934076E0,2.1356789E1,3.7572737E0,3.5687546E1,4.2364056E1],"tree_param":{"num_deleted":"0","num_feature":"28","num_nodes":"35","size_leaf_vector":"1"}},{"base_weights":[1.2881967E-2,7.873527E-2,-8.506844E-1,2.7881311E-2,5.099822E-1,-3.569247E-2,-9.72293E-1,-3.8033408E-1,1.7412013E-1,-1.0486071E0,-9.23662E-2,9.445581E-2,-9.235256E-1,4.8154432E-1,-4.8664906E-3,-4.2576495E-1,-5.1571774E-1,-1.3800965E-1,3.9675614E-1,-4.4802293E-1,5.6269135E-2,3.382301E-2,-4.1558763E-1,-3.3609706E-1,1.2736331E-1],"categories":[],"categories_nodes":[],"categories_segments":[],"categories_sizes":[],"default_left":[0,0,0,0,0,0,0,0,0,0,0,0,0,0,0,0,0,0,0,0,0,0,0,0,0],"id":6,"left_children":[1,3,5,7,-1,-1,9,11,13,15,-1,17,19,-1,21,23,-1,-1,-1,-1,-1,-1,-1,-1,-1],"loss_changes":[9.649891E0,9.544671E0,1.0266838E0,9.145258E0,0E0,0E0,3.3876324E-1,1.0513427E1,2.0769913E1,8.042631E-1,0E0,9.208012E0,4.1205273E0,0E0,9.055214E0,1.5040977E0,0E0,0E0,0E0,0E0,0E0,0E0,0E0,0E0,0E0],"parents":[2147483647,0,0,1,1,2,2,3,3,6,6,7,7,8,8,9,9,11,11,12,12,14,14,15,15],"right_children":[2,4,6,8,-1,-1,10,12,14,16,-1,18,20,-1,22,24,-1,-1,-1,-1,-1,-1,-1,-1,-1],"split_conditions":[1.6576796E0,1.2292227E0,-6.72919E-2,-1.3573458E0,5.099822E-1,-3.569247E-2,-3.2726225E-1,1.4054096E-1,7.361117E-1,-1.3573458E0,-9.23662E-2,6.096541E-1,1.3226783E0,4.8154432E-1,1.1988316E0,1.8217877E-1,-5.1571774E-1,-1.3800965E-1,3.9675614E-1,-4.4802293E-1,5.6269135E-2,3.382301E-2,-4.1558763E-1,-3.3609706E-1,1.2736331E-1],"split_indices":[0,0,27,5,0,0,9,26,5,5,0,0,1,0,0,26,0,0,0,0,0,0,0,0,0],"split_type":[0,0,0,0,0,0,0,0,0,0,0,0,0,0,0,0,0,0,0,0,0,0,0,0,0],"sum_hessian":[1.6750941E2,1.5648509E2,1.1024317E1,1.5108543E2,5.399667E0,1.7569451E0,9.267372E0,3.9426987E1,1.1165845E2,8.026732E0,1.2406398E0,2.147892E1,1.7948069E1,1.5686329E1,9.5972115E1,3.0090287E0,5.0177035E0,1.4831416E1,6.6475034E0,1.5105886E1,2.8421826E0,8.917863E1,6.7934904E0,1.8497107E0,1.1593179E0],"tree_param":{"num_deleted":"0","num_feature":"28","num_nodes":"25","size_leaf_vector":"1"}},{"base_weights":[8.815834E-3,5.428991E-2,-7.588804E-1,-2.9960066E-1,1.6831997E-1,-4.0307575E-1,1.901575E-1,-4.246617E-1,3.550894E-1,4.7733355E-1,4.9335785E-2,-5.561176E-1,4.175947E-1,-3.7241766E-1,2.2371987E-1,-1.4397296E-1,-4.3934065E-1,2.8166124E-1,-1.448443E-1,1.0744083E-2,-2.9163042E-1,4.1093168E-1,3.6739882E-2],"categories":[],"categories_nodes":[],"categories_segments":[],"categories_sizes":[],"default_left":[0,0,0,0,0,0,0,0,0,0,0,0,0,0,0,0,0,0,0,0,0,0,0],"id":7,"left_children":[1,3,5,7,9,-1,-1,11,-1,-1,13,15,17,19,21,-1,-1,-1,-1,-1,-1,-1,-1],"loss_changes":[5.5399814E0,6.0888925E0,3.2045903E0,5.845123E0,1.3821591E1,0E0,0E0,3.9958882E0,0E0,0E0,7.659929E0,2.778185E0,1.4079554E0,4.364412E0,7.695327E0,0E0,0E0,0E0,0E0,0E0,0E0,0E0,0E0],"parents":[2147483647,0,0,1,1,2,2,3,3,4,4,7,7,10,10,11,11,12,12,13,13,14,14],"right_children":[2,4,6,8,10,-1,-1,12,-1,-1,14,16,18,20,22,-1,-1,-1,-1,-1,-1,-1,-1],"split_conditions":[1.6627738E0,-1.0441303E0,2.039801E0,7.107902E-1,-2.3439834E-2,-4.0307575E-1,1.901575E-1,-2.2488593E-1,3.550894E-1,4.7733355E-1,5.5902693E-3,-5.601897E-1,-3.4088066E-1,-4.4025877E-1,7.093563E-1,-1.4397296E-1,-4.3934065E-1,2.8166124E-1,-1.448443E-1,1.0744083E-2,-2.9163042E-1,4.1093168E-1,3.6739882E-2],"split_indices":[1,1,26,25,1,0,0,11,0,0,1,26,6,6,1,0,0,0,0,0,0,0,0],"split_type":[0,0,0,0,0,0,0,0,0,0,0,0,0,0,0,0,0,0,0,0,0,0,0],"sum_hessian":[1.5651186E2,1.4863672E2,7.8751354E0,3.582548E1,1.1281123E2,6.7067447E0,1.1683903E0,3.2992695E1,2.832788E0,1.0794077E1,1.0201716E2,2.8832382E1,4.16031E0,2.9510195E1,7.2506966E1,2.2393873E1,6.4385104E0,3.1130838E0,1.0472263E0,1.4359487E1,1.5150708E1,9.263747E0,6.3243217E1],"tree_param":{"num_deleted":"0","num_feature":"28","num_nodes":"23","size_leaf_vector":"1"}},{"base_weights":[1.0517117E-2,5.9035886E-2,-6.4275676E-1,-3.6339176E-1,1.5945894E-1,-1.3907263E-2,-7.5773644E-1,-8.7537295E-1,-3.9466772E-2,4.851194E-1,4.005725E-2,-8.262934E-1,-6.347092E-2,-4.2701545E-1,2.4870667E-3,-3.625295E-1,5.3107125E-1,-4.3589053E-1,2.472076E-1,-3.2465413E-1,-4.2182323E-1,-3.1583782E-2,-3.8293657E-1,4.6993682E-1,-6.437574E-2,-2.2556852E-1,2.9745698E-1,4.6491486E-1,-4.560059E-3,-2.4107538E-1,7.83606E-2],"categories":[],"categories_nodes":[],"categories_segments":[],"categories_sizes":[],"default_left":[0,0,0,0,0,0,0,0,0,0,0,0,0,0,0,0,0,0,0,0,0,0,0,0,0,0,0,0,0,0,0],"id":8,"left_children":[1,3,5,7,9,-1,11,13,15,-1,17,19,-1,-1,-1,21,23,25,27,29,-1,-1,-1,-1,-1,-1,-1,-1,-1,-1,-1],"loss_changes":[4.631856E0,5.8201394E0,6.8001413E-1,4.3427258E0,1.3841264E1,0E0,2.1589565E-1,1.7313862E0,3.3652558E0,0E0,9.989511E0,4.9856567E-1,0E0,0E0,0E0,1.8783629E0,3.1421673E0,5.064042E0,1.6690178E1,6.595818E-1,0E0,0E0,0E0,0E0,0E0,0E0,0E0,0E0,0E0,0E0,0E0],"parents":[2147483647,0,0,1,1,2,2,3,3,4,4,6,6,7,7,8,8,10,10,11,11,15,15,16,16,17,17,18,18,19,19],"right_children":[2,4,6,8,10,-1,12,14,16,-1,18,20,-1,-1,-1,22,24,26,28,30,-1,-1,-1,-1,-1,-1,-1,-1,-1,-1,-1],"split_conditions":[1.6576796E0,-1.3457439E0,-6.72919E-2,-6.525928E-1,-2.2350164E-1,-1.3907263E-2,-3.2726225E-1,-3.2726225E-1,1.8217877E-1,4.851194E-1,-2.2235857E-1,-1.3573458E0,-6.347092E-2,-4.2701545E-1,2.4870667E-3,6.645982E-1,7.2615904E-1,6.164414E0,6.0280347E-1,1.8217877E-1,-4.2182323E-1,-3.1583782E-2,-3.8293657E-1,4.6993682E-1,-6.437574E-2,-2.2556852E-1,2.9745698E-1,4.6491486E-1,-4.560059E-3,-2.4107538E-1,7.83606E-2],"split_indices":[0,0,27,6,0,0,9,9,26,0,0,5,0,0,0,1,26,22,0,26,0,0,0,0,0,0,0,0,0,0,0],"split_type":[0,0,0,0,0,0,0,0,0,0,0,0,0,0,0,0,0,0,0,0,0,0,0,0,0,0,0,0,0,0,0],"sum_hessian":[1.4393637E2,1.3483202E2,9.104367E0,2.5394005E1,1.09438E2,1.6550723E0,7.4492946E0,9.18082E0,1.6213184E1,1.0209998E1,9.9228004E1,6.343966E0,1.1053288E0,7.3645916E0,1.8162285E0,1.0584421E1,5.628763E0,2.9756159E1,6.947185E1,2.741487E0,3.602479E0,7.9344883E0,2.649933E0,2.554559E0,3.0742044E0,2.7313377E1,2.44278E0,1.453733E1,5.4934517E1,1.6841731E0,1.0573138E0],"tree_param":{"num_deleted":"0","num_feature":"28","num_nodes":"31","size_leaf_vector":"1"}},{"base_weights":[1.27430465E-2,-5.143278E-2,5.208988E-1,1.0281254E-1,-3.9161998E-1,-6.2229753E-2,1.2766507E0,-5.998254E-2,5.105479E-1,-1.0329353E0,-5.803876E-2,-6.1295927E-1,4.04033E-1,5.579745E-1,1.8177478E-1,2.0392263E-1,-4.9066126E-1,-9.2303775E-2,-1.170378E0,4.0833998E-1,-3.795147E-1,5.7276685E-2,-3.9328802E-1,8.2707596E-1,-2.1790408E-1,-1.7725846E-1,1.3547854E-1,1.2708682E-1,-2.4855545E-1,-4.9460647E-1,-1.1802789E-1,-3.906738E-1,7.333552E-2,4.943162E-1,-8.551016E-2],"categories":[],"categories_nodes":[],"categories_segments":[],"categories_sizes":[],"default_left":[0,0,0,0,0,0,0,0,0,0,0,0,0,0,0,0,0,0,0,0,0,0,0,0,0,0,0,0,0,0,0,0,0,0,0],"id":9,"left_children":[1,3,5,7,9,11,13,15,-1,17,19,21,23,-1,-1,25,27,-1,29,-1,31,-1,-1,33,-1,-1,-1,-1,-1,-1,-1,-1,-1,-1,-1],"loss_changes":[4.337972E0,6.2469754E0,6.651788E0,1.5776367E1,7.878765E0,2.6541443E0,2.3174286E-3,8.410872E0,0E0,1.1233063E0,9.221634E0,1.4549572E0,2.7294788E0,0E0,0E0,4.165604E0,3.1643872E0,0E0,2.4553776E-1,0E0,7.019946E0,0E0,0E0,2.1036322E0,0E0,0E0,0E0,0E0,0E0,0E0,0E0,0E0,0E0,0E0,0E0],"parents":[2147483647,0,0,1,1,2,2,3,3,4,4,5,5,6,6,7,7,9,9,10,10,11,11,12,12,15,15,16,16,18,18,20,20,23,23],"right_children":[2,4,6,8,10,12,14,16,-1,18,20,22,24,-1,-1,26,28,-1,30,-1,32,-1,-1,34,-1,-1,-1,-1,-1,-1,-1,-1,-1,-1,-1],"split_conditions":[1.6682934E0,7.285959E-1,2.1210508E0,1.8217877E-1,7.451716E-1,7.451716E-1,1.5256577E0,-5.831664E-2,5.105479E-1,-3.9798957E-1,1.216343E0,-1.3457439E0,8.1036276E-1,5.579745E-1,1.8177478E-1,-1.3457439E0,-5.076229E-1,-9.2303775E-2,2.7605479E0,4.0833998E-1,1.2263613E0,5.7276685E-2,-3.9328802E-1,1.8563095E0,-2.1790408E-1,-1.7725846E-1,1.3547854E-1,1.2708682E-1,-2.4855545E-1,-4.9460647E-1,-1.1802789E-1,-3.906738E-1,7.333552E-2,4.943162E-1,-8.551016E-2],"split_indices":[6,26,8,26,26,26,26,6,0,0,26,0,1,0,0,0,27,0,3,0,26,0,0,6,0,0,0,0,0,0,0,0,0,0,0],"split_type":[0,0,0,0,0,0,0,0,0,0,0,0,0,0,0,0,0,0,0,0,0,0,0,0,0,0,0,0,0,0,0,0,0,0,0],"sum_hessian":[1.3119894E2,1.1728554E2,1.3913399E1,8.117673E1,3.6108814E1,8.37162E0,5.5417776E0,7.212103E1,9.055695E0,1.1638022E1,2.447079E1,3.6939106E0,4.67771E0,4.235838E0,1.30594E0,4.5045315E1,2.7075716E1,2.0942152E0,9.543807E0,5.1182356E0,1.9352554E1,1.4158049E0,2.2781057E0,3.323937E0,1.3537732E0,7.3704767E0,3.767484E1,3.569935E0,2.3505781E1,8.489665E0,1.054142E0,9.033286E0,1.0319268E1,2.2522502E0,1.0716867E0],"tree_param":{"num_deleted":"0","num_feature":"28","num_nodes":"35","size_leaf_vector":"1"}}]},"name":"gbtree"},"learner_model_param":{"base_score":"5.053955E-1","boost_from_average":"1","num_class":"0","num_feature":"28","num_target":"1"},"objective":{"name":"binary:logistic","reg_loss_param":{"scale_pos_weight":"1"}}},"version":[2,0,3]}